tree
version=v4
num_class=1
num_tree_per_iteration=1
label_index=0
max_feature_idx=28
objective=regression_l1
feature_names=age gender education monthly_income job_category satis_wage satis_stability satis_growth satis_task_content satis_work_env satis_work_time satis_communication satis_fair_eval satis_welfare prev_job_satisfaction satisfaction_lag_1 income_lag_1 satisfaction_roll_mean_3 satisfaction_roll_std_3 income_roll_mean_3 career_length career_stage satisfaction_mean satisfaction_std satisfaction_range age_x_education income_x_satisfaction_lag_1 job_cat_income_avg job_cat_satis_avg
feature_infos=[17:94] [1:2] [1:6] [0:1000] [1:9] [1:5] [1:5] [1:5] [1:5] [1:5] [1:5] [1:5] [1:5] [1:5] [1:5] [1:5] [0:1000] [1:5] [0:2.8284271247461903] [0:1000] [0:12] [1:4] [1:5] [0:1.9002923751652301] [0:4] [34:534] [0:4000] [147.45976027397259:473.01237842617155] [2.3704686118479223:2.8578122011856952]
tree_sizes=2676 2691 2831 2818 2826 2681 2825 2838 2651 2702 2845 2811 2866 2508 2704 2844 2865 2869 2859 2804 2820 2843 2857 2865 2768 2843 2852 2794 2870 2862 2873 2847 2847 2869 2823 2879 2879 2859 2805 2885 2890 2860 2819 2835 2914 2805 2916 2890 2897 2927 2850 2892 2866 2872 2864 2757 2930 2944 2907 2915 2933 2945 2923 2941 2914 2910 2932 2919 2952 2944 2957 2952 2955 2879 2937 2898 2947 2946 2933 2900 2909 2925 2909 2960 2914 2927 2948 2949 2956 2964 2950 2950 2934 2948 2944 2908 2937 2950 2924 2924 2949 2954 2948 2955 2932 2936 2919 2902 2901 2902 2932 2945 2818 2841 2940 2991 2973 2981 3009 2962 2961 2996 2975 2995 2962 3007 3007 2943 2969 2973 2981 2983 2984 2967 2938 2919 2992 2914 2942 2979 2999 2968 2981 3021 2998 2995 3006 2966 2967 3006 2986 2984 2996 2984 2983 2996 2936 2960 2999 3009 3007 2981 2963 2993 3018 2946 2969 2965 2985 2979 2943 2997 3001 2973 2979 3030 2948 2958 2905 2959 2946 2948 2948 2976 2990 2951 2951 2899 2945 3003 2922 2859 2898 2994 3000 2981 2980 2967 2966 2969 3000 2972 2981 3003 2960 2976 2964 2938 3003 2986 2726 2982 2965 2968 2983 2972 2957 2961 3001 2980 2986 2993 2995 2991 2060 2985 2971 2967 2998 2996 2990 2969 1995 3016 2988 2990 2997 2964 3007 2201 2982 2978 3017 3029 2967 2944 3002 3026 2983 2988 2979 2831 2941 2993 2999 2967 3010 3008 3003 2998 2731 3033 2976 3016 2983 2993 3009 3007 2998 2971 3015 2980 2833 2987 2990 3016 2953 3010 3029 3039 3016 3030 3052 3021 3041 3019 3026 3017 3027 3022 3034 3031 3025 3021 3037 3024 3033 3041 3037 3030 3007 3006 3039 3014 3022 3021 3034 3009 3037 3020 3036 3036 3036 3009 3012 3020 3027 3031 3035 3042 3019 3023 3021 3031 3031 3040 3009 3030 3015 3013 3044 3044 3048 3034 3011 3017 3029 3019 2841 2953 3028 2997 2802 3002 3029 3045 2998 3030 3015 3001 3028 3034 3031 3032 3039 3026 3018 3025 3022 3038 3027 3020 3047 3049 3008 3036 3040 3037 3052 3041 3029 3029 3058 2814 3044 3053 3029 2977 3037 3033 3052 3023 3038 2983 3038 2838 3023 3038 3032 3016 3008 3032 3000 2999 3023 3022 3042 3025 3007 3033 3025 2979 2993 3027 3040 3041 2989 3048 2991 3046 3057 3019 3018 3016 3032 3018 3010 3011 2997 3022 3024 3048 2995 2986 3038 3047 3050 2192 2988 3067 3064 3020 2976 2763 2961 2961 2976 2793 2870 2174 3028 3043 3002 2789 3023 3050 3030 3021 3038 3005 3013 3034 3027 3045 3026 3033 3022 3002 3039 3030 3009 3009 3029 3051 3052 3042 3054 2011 2358 3045 3043 2914 2814 3023 3010 3016 3030 3038 3028 3040 3028 3032 3047 3037 3040 3035 3064 3056 3026 3042 2961 2714 3009 3064 3042 3043 3048 3007 3038 3042 3044 3066 3031 3075 3021 3015 3037 3063 3058 3065 2792 3051 3073 3024 3045 3039 3044 3066 3045 3065 3046 3052 3033 3023 3057 3060 3053 2025 3036 3019 3042 3063 3061 3018 3049 3044 3043 3005 3021 2992 3047 3042 3046 2981 3062 3019 3030 3046 3036 3047 2799 2125 2252 3028 3034 3045 3031 2985 2986 2985 3038 3013 3054 3035 3061 3036 3042 3037 3038 3032 3025 3030 3038 3000 3020 2061 3049 2275 3023 3021 3037 3029 3014 3022 3053 2491 3043 3012 2995 3056 3022 3030 3036 3032 3036 2620 3042 3008 3039 3031 3026 3013 3023 3064 3025 2265 3051 3052 3020 2993 3061 3044 3036 3039 2990 3029 2033 2867 3028 3039 3040 3026 3043 3050 3056 3013 3042 3052 3014 3022 2721 3046 3017 3041 3015 3033 2985 3051 3003 2551 3021 3013 3010 3054 2941 3020 3046 3037 3042 3045 3035 2994 3008 3027 3025 2913 2984 2943 3026 3040 2993 2999 3021 3021 2885 3005 3012 3017 3024 3021 3017 3058 2582 3011 1959 2955 1685 1984 1978 3050 3001 2781 2974 2871 2984 2850 3007 2828 3028 3030 3023 3033 2947 2684 3019 2836 2933 2990 2526 3037 3026 2990 2965 2988 2998 2914 2992 2972 2977 2961 3009 2775 2993 1944 2782 1975 1961 1967 2978 2909 2402 2793 2391 2425 2764 2799 2800 3048 3028 3019 3032 3004 3030 3017 3038 2978 2788 2993 2842 2956 2804 3031 3036 3043 3046 3058 3041 3046 3051 3051 3055 3012 2850 2870 2878 3038 3028 2866 2873 2470 3073 3031 2805 2648 2790 2977 2710 2826 2665 2961 2851 2968 2312 2972 3035 2778 2539 2736 2245 2717 2620 2623 2357 2566 3003 2551 3032 2690 1755 2999 3020 2699 2679 2691 2777 2895 3031 3057 2652 2928 2978 3033 3024 3030 2641 2734 3016 1229 2160 3028 3023 1751 3031 2995 1673 2989 2988 2989 3005 3034 3005 2735 3050 2950 2939 3031 2986 2955 2980 2751 3041 2812 3035 2990 3020 2935 2995 2977 2990 3037 2986 3043 3016 3015 3024 2991 3031 3043 2607 2943 3069 2974 2804 3037 2939 2897 2768 3000 3030 3017 2851 2862 2806 2706 3017 3024 3039 2865 2692 2786 2678 2967 2711 2968 2838 3022 2220 2970 2824 2995 3012 2943 3026 2997 2699 2981 2957 3016 2988 3006 3019 3012 2886 3025 2964 3047 3043 2518 2504 2990 2913 2851 2221 3022 1753 1975 3027 3036 3003 2988 3039 3019 3033 3017 3012 2714 3034 3033 3030 3024 3041 3054 3033 3041 3035 2955 2966 3026 3014 3044 3013 2964 3014 3026 3000 3032 3034 2982 3052 3060 2995 2450 1396 1912 1967 1971 2930

Tree=0
num_leaves=31
num_cat=0
split_feature=14 7 11 14 8 7 8 8 5 7 5 14 9 5 5 13 5 15 14 13 5 5 13 13 5 15 11 15 13 15
split_gain=6503.72 2519.15 2178.52 1659.31 651.48 368.418 329.391 311.022 283.188 218.478 213.125 194.265 157.922 135.052 99.5929 81.0804 79.8086 74.0318 52.9069 46.6719 46.1779 44.482 32.9786 32.7513 26.564 16.6898 16.0726 8.95955 8.25521 8.10624
threshold=2.5000000000000004 2.5000000000000004 2.5000000000000004 3.5000000000000004 2.5000000000000004 3.5000000000000004 2.5000000000000004 2.5000000000000004 2.5000000000000004 3.5000000000000004 2.5000000000000004 1.5000000000000002 2.5000000000000004 2.5000000000000004 2.5000000000000004 2.5000000000000004 2.5000000000000004 2.5000000000000004 3.5000000000000004 2.5000000000000004 2.5000000000000004 3.5000000000000004 2.5000000000000004 1.5000000000000002 3.5000000000000004 2.5000000000000004 2.5000000000000004 2.5000000000000004 3.5000000000000004 2.5000000000000004
decision_type=2 2 2 2 2 2 2 2 2 2 2 2 2 2 2 2 2 2 2 2 2 2 2 2 2 2 2 2 2 2
left_child=2 8 7 4 10 -6 14 11 26 24 -3 23 17 -13 25 29 27 -10 -14 -16 -17 -11 -18 -1 -5 -4 28 -8 -2 -9
right_child=1 3 6 9 5 -7 16 15 12 21 -12 13 18 -15 19 20 22 -19 -20 -21 -22 -23 -24 -25 -26 -27 -28 -29 -30 -31
leaf_value=0 -0.050000000000000003 -0.050000000000000003 0 -0.050000000000000003 0 0 0 0 -0.050000000000000003 -0.050000000000000003 0 0 0 0 0 0 0.050000000000000003 -0.050000000000000003 -0.050000000000000003 0.050000000000000003 0.050000000000000003 0 0.050000000000000003 0.050000000000000003 -0.050000000000000003 0.050000000000000003 -0.050000000000000003 0.050000000000000003 -0.050000000000000003 0.050000000000000003
leaf_weight=54 3167 1306 1040 1502 24116 4300 622 570 883 339 7381 9223 2019 8920 352 413 274 3971 146 3114 1281 1223 5893 364 1319 144 348 113 176 43
leaf_count=54 3167 1306 1040 1502 24116 4300 622 570 883 339 7381 9223 2019 8920 352 413 274 3971 146 3114 1281 1223 5893 364 1319 144 348 113 176 43
internal_value=-0.00037877 -0.0113035 0.0172101 -0.00572241 -0.00228553 0.00137774 0.0346304 0.00756661 -0.0329225 -0.0348163 -0.0142684 0.00541458 -0.0270266 0.00463815 0.0243441 0.0248808 0.0415604 -0.0320354 -0.0157968 0.0286209 0.0305195 -0.0198143 0.0434166 0.0391148 -0.043123 0.0118243 -0.0441344 0.0259864 -0.0451989 0.00929853
internal_weight=84616 52196 32420 41486 37103 28416 11552 20868 10710 4383 8687 18561 7019 18143 4650 2307 6902 4854 2165 3466 1694 1562 6167 418 2821 1184 3691 735 3343 613
internal_count=84616 52196 32420 41486 37103 28416 11552 20868 10710 4383 8687 18561 7019 18143 4650 2307 6902 4854 2165 3466 1694 1562 6167 418 2821 1184 3691 735 3343 613
is_linear=0
shrinkage=0.05


Tree=1
num_leaves=31
num_cat=0
split_feature=14 9 11 14 5 7 15 23 14 5 5 15 15 9 14 20 13 12 5 23 20 10 15 15 20 15 13 13 5 15
split_gain=3783.32 1694.76 1557.34 1187.69 618.267 409.792 327.625 257.123 230.554 214.363 194.266 182.681 179.268 170.332 164.573 128.027 124.594 89.271 87.9831 81.9466 81.7985 53.0283 43.3705 42.5822 206.105 35.3003 30.9943 26.5245 16.8395 8.95872
threshold=2.5000000000000004 2.5000000000000004 2.5000000000000004 3.5000000000000004 2.5000000000000004 3.5000000000000004 2.5000000000000004 0.38714594258871599 3.5000000000000004 3.5000000000000004 3.5000000000000004 2.5000000000000004 2.5000000000000004 3.5000000000000004 1.5000000000000002 1.5000000000000002 3.5000000000000004 1.5000000000000002 4.5000000000000009 0.47047927592204924 1.5000000000000002 1.5000000000000002 3.5000000000000004 2.5000000000000004 1.0000000180025095e-35 2.5000000000000004 2.5000000000000004 2.5000000000000004 2.5000000000000004 2.5000000000000004
decision_type=2 2 2 2 2 2 2 2 2 2 2 2 2 2 2 2 2 2 2 2 2 2 2 2 2 2 2 2 2 2
left_child=1 11 4 5 19 12 20 23 -8 16 -7 14 -4 18 21 27 -9 -16 -5 29 -6 -1 -15 24 -3 -21 -11 -13 -17 -2
right_child=2 7 3 13 6 10 8 9 -10 26 -12 15 -14 22 17 28 -18 -19 -20 25 -22 -23 -24 -25 -26 -27 -28 -29 -30 -31
leaf_value=0 -0.047500000000000001 -0.0025000000000000005 0 -0.047500000000000001 -0.047500000000000001 0 0 0 -0.047500000000000001 0 0.050000000000000003 0 0 -0.047500000000000001 -0.050000000000000003 0 0.047500000000000001 0 0 -0.047500000000000001 -0.047500000000000001 0.047500000000000001 0 0.047500000000000001 0.047500000000000001 -0.047500000000000001 0.047500000000000001 0.047500000000000001 0 -0.047500000000000001
leaf_weight=103 615 140 1410 2578 953 1805 8724 4991 677 93 2427 168 27480 219 231 299 955 18569 219 343 408 304 961 999 2575 1456 1870 674 449 1921
leaf_count=103 615 140 1410 2578 953 1805 8724 4991 677 93 2427 168 27480 219 231 299 955 18569 219 343 408 304 961 999 2575 1456 1870 674 449 1921
internal_value=-8.6863e-05 0.0133282 -0.00841923 -0.00290978 -0.021958 0.000190206 -0.0155361 0.02862 -0.0122168 0.0235238 0.0147212 0.00478194 -0.00193839 -0.0287277 0.00343364 0.0210692 0.0187941 0.00275266 -0.0354487 -0.0379008 -0.0384644 0.0348894 -0.0127966 0.0394723 0.0362247 -0.0297387 0.0378502 0.0344418 0.00601604 -0.0436909
internal_weight=84616 32420 52196 37099 15097 33122 10762 11623 9401 7909 4232 20797 28890 3977 19207 1590 5946 18800 2797 4335 1361 407 1180 3714 2715 1799 1963 842 748 2536
internal_count=84616 32420 52196 37099 15097 33122 10762 11623 9401 7909 4232 20797 28890 3977 19207 1590 5946 18800 2797 4335 1361 407 1180 3714 2715 1799 1963 842 748 2536
is_linear=0
shrinkage=0.05


Tree=2
num_leaves=31
num_cat=0
split_feature=14 22 22 14 22 22 22 14 22 15 5 20 15 20 15 15 20 22 22 15 20 5 14 20 22 23 15 20 20 15
split_gain=3860.3 2369.57 2243.84 1075.2 558.701 428.222 329.985 186.04 175.276 105.208 80.9036 80.8927 77.7837 180.837 67.4148 66.1398 337.283 65.9301 61.1915 58.7668 131.791 57.9219 57.8415 31.4375 15.8728 11.8568 11.7026 11.6779 4.2207 3.1162
threshold=2.5000000000000004 2.7222222222222228 2.3888888888888897 3.5000000000000004 3.3888888888888897 3.6111111111111112 2.7222222222222228 1.5000000000000002 2.9444444444444451 2.5000000000000004 2.5000000000000004 1.5000000000000002 2.5000000000000004 1.0000000180025095e-35 3.5000000000000004 2.5000000000000004 1.0000000180025095e-35 1.166666666666667 1.9444444444444446 2.5000000000000004 1.0000000180025095e-35 3.5000000000000004 4.5000000000000009 1.5000000000000002 2.1666666666666674 0.63379593962199932 2.5000000000000004 1.5000000000000002 3.5000000000000004 2.5000000000000004
decision_type=2 2 2 2 2 2 2 2 2 2 2 2 2 2 2 2 2 2 2 2 2 2 2 2 2 2 2 2 2 2
left_child=1 7 10 5 21 6 -4 18 12 17 24 -11 13 -3 -7 16 -10 -9 25 27 -21 -5 -6 -14 29 -1 -26 -12 -17 -2
right_child=2 8 3 4 22 14 -8 9 15 11 19 -13 23 -15 -16 28 -18 -19 -20 20 -22 -23 -24 -25 26 -27 -28 -29 -30 -31
leaf_value=0 -0.045124999999999998 -0.0023750000000000004 0 -0.045124999999999998 0 0.047500000000000001 0 -0.047500000000000001 -0.0023750000000000004 0.045124999999999998 -0.045124999999999998 0 0.045124999999999998 0.045124999999999998 0.047500000000000001 0.045124999999999998 0.045124999999999998 0 0.045124999999999998 0.0025000000000000005 -0.047500000000000001 -0.045124999999999998 -0.050000000000000003 0.045124999999999998 -0.045124999999999998 -0.0024375000000000004 -0.045124999999999998 -0.045124999999999998 0.045124999999999998 -0.045124999999999998
leaf_weight=81 433 240 7950 1838 1355 1174 32013 103 246 809 439 803 516 2697 243 1307 4205 20516 331 146 1927 1441 80 235 389 54 1288 152 277 1328
leaf_count=81 433 240 7950 1838 1355 1174 32013 103 246 809 439 803 516 2697 243 1307 4205 20516 331 146 1927 1441 80 235 389 54 1288 152 277 1328
internal_value=-0.00056195 0.0129889 -0.00897866 -0.00520675 -0.027832 -0.00262929 -0.00358707 0.00414152 0.0336419 0.00348612 -0.0374713 0.0157878 0.0250542 0.0213824 0.0243825 0.0388898 0.0357672 0.00252437 0.0354077 -0.0309309 -0.0269658 -0.0392193 -0.00181185 0.0394141 -0.0425393 0.00703704 -0.0390578 -0.0448393 0.0476641 -0.0458546
internal_weight=84616 32420 52196 46094 4714 41380 39963 22697 9723 22231 6102 1612 3688 2937 1417 6035 4451 20619 466 2664 2073 3279 1435 751 3438 135 1677 591 1584 1761
internal_count=84616 32420 52196 46094 4714 41380 39963 22697 9723 22231 6102 1612 3688 2937 1417 6035 4451 20619 466 2664 2073 3279 1435 751 3438 135 1677 591 1584 1761
is_linear=0
shrinkage=0.05


Tree=3
num_leaves=31
num_cat=0
split_feature=14 22 22 14 22 22 15 22 14 15 15 20 15 5 20 22 22 15 20 20 22 22 14 22 5 15 20 20 5 15
split_gain=3716.45 2360.32 2183.21 1032.04 560.586 386.066 325.859 202.675 198.556 186.743 110.408 358.232 100.742 90.9353 69.3558 67.7892 65.0613 64.199 113.539 58.8614 48.9194 46.2995 41.0919 16.0124 12.0977 11.7946 11.513 9.08979 7.96591 3.1162
threshold=2.5000000000000004 2.8333333333333335 2.3888888888888897 3.5000000000000004 3.3888888888888897 2.7222222222222228 3.5000000000000004 2.6111111111111112 1.5000000000000002 2.5000000000000004 2.5000000000000004 1.0000000180025095e-35 2.5000000000000004 2.5000000000000004 1.0000000180025095e-35 1.166666666666667 3.1666666666666674 2.5000000000000004 1.0000000180025095e-35 1.5000000000000002 1.9444444444444446 2.9444444444444451 4.5000000000000009 2.1666666666666674 2.5000000000000004 2.5000000000000004 1.5000000000000002 1.5000000000000002 2.5000000000000004 2.5000000000000004
decision_type=2 2 2 2 2 2 2 2 2 2 2 2 2 2 2 2 2 2 2 2 2 2 2 2 2 2 2 2 2 2
left_child=1 7 13 5 16 9 -7 8 20 -4 11 24 14 23 -9 -10 -5 26 -19 -14 -1 -13 -6 29 -3 -25 -15 -12 -29 -2
right_child=2 10 3 4 22 6 -8 12 15 -11 27 21 19 17 -16 -17 -18 18 -20 -21 -22 -23 -24 25 -26 -27 -28 28 -30 -31
leaf_value=0 -0.042868750000000004 0.00011875000000000003 -0.045124999999999998 -0.042868750000000004 0 0 0.045124999999999998 0 -0.045124999999999998 0 0.042868750000000004 0.042868750000000004 0.045243749999999999 -0.042868750000000004 0.045243749999999999 0 -0.042868750000000004 0.0023750000000000004 -0.045124999999999998 0.045243749999999999 0.042868750000000004 0.042868750000000004 -0.047500000000000001 -0.042868750000000004 -0.00225625 -0.042868750000000004 -0.042868750000000004 0.042868750000000004 0.042868750000000004 -0.042868750000000004
leaf_weight=135 433 20 988 2260 1355 32559 871 365 106 6962 1462 1255 444 439 3145 19889 1019 146 1927 262 311 4205 80 389 308 1288 152 34 479 1328
leaf_count=135 433 20 988 2260 1355 32559 871 365 106 6962 1462 1255 444 439 3145 19889 1019 146 1927 262 311 4205 80 389 308 1288 152 34 479 1328
internal_value=-0.000788267 0.0125077 -0.00904667 -0.00532607 -0.0274926 -0.00280087 -0.000445707 0.00493775 0.00287902 -0.0127044 0.0365516 0.0330684 0.0149194 -0.0371518 0.011453 0.00214304 -0.0388991 -0.0302177 -0.0260733 0.032153 0.0358744 0.0361172 -0.00142857 -0.0425247 -0.0176829 -0.039028 -0.0447547 0.0467595 0.0410331 -0.0458546
internal_weight=84616 32420 52196 46094 4714 41380 33430 24657 20441 7950 7763 5788 4216 6102 3510 19995 3279 2664 2073 706 446 5460 1435 3438 328 1677 591 1975 513 1761
internal_count=84616 32420 52196 46094 4714 41380 33430 24657 20441 7950 7763 5788 4216 6102 3510 19995 3279 2664 2073 706 446 5460 1435 3438 328 1677 591 1975 513 1761
is_linear=0
shrinkage=0.05


Tree=4
num_leaves=31
num_cat=0
split_feature=14 22 22 14 22 22 22 14 15 22 15 5 15 18 17 22 15 15 22 14 22 23 22 13 15 5 0 8 15 8
split_gain=3508.02 2522.91 2152.07 1010.94 560.586 339.818 276.479 213.878 166.717 145.289 110.408 90.9353 68.279 66.7691 78.8218 65.0613 64.199 51.9159 50.7652 41.0919 37.2667 26.5262 16.0124 13.3672 11.7946 3.40804 4.37 3.47948 3.1162 2.90515
threshold=2.5000000000000004 2.8333333333333335 2.3888888888888897 3.5000000000000004 3.3888888888888897 2.8333333333333335 3.7222222222222228 1.5000000000000002 2.5000000000000004 2.7222222222222228 2.5000000000000004 2.5000000000000004 2.5000000000000004 0.57735026918962384 2.8333333333333335 3.1666666666666674 2.5000000000000004 2.5000000000000004 1.9444444444444446 4.5000000000000009 2.1666666666666674 0.56398574463603091 2.1666666666666674 2.5000000000000004 2.5000000000000004 2.5000000000000004 52.500000000000007 2.5000000000000004 2.5000000000000004 1.5000000000000002
decision_type=2 2 2 2 2 2 2 2 2 2 2 2 2 2 2 2 2 2 2 2 2 2 2 2 2 2 2 2 2 2
left_child=1 7 11 5 15 8 -7 18 -4 12 13 22 -9 14 -3 -5 -13 -11 23 -6 -18 -15 28 -1 -24 26 -12 -27 -2 -20
right_child=2 10 3 4 19 6 -8 9 -10 17 25 16 -14 21 -16 -17 20 -19 29 -21 -22 -23 24 -25 -26 27 -28 -29 -30 -31
leaf_value=6.0937500000000011e-05 -0.040725312499999999 0.040725312499999999 -0.042868750000000004 -0.040725312499999999 0 0 0.045124999999999998 0 0 0.042981562500000008 0.043100312500000001 -0.040725312499999999 0 0.040725312499999999 -0.0021434374999999999 -0.040725312499999999 -0.042868750000000004 0.042981562500000008 0.040725312499999999 -0.045124999999999998 -0.042868750000000004 0.040725312499999999 -0.040725312499999999 -0.002378125 -0.040725312499999999 0.040725312499999999 0.040725312499999999 0.040725312499999999 -0.040725312499999999 0.040725312499999999
leaf_weight=98 433 1818 1251 2260 1355 28899 947 20619 10283 1584 51 591 1612 2589 105 1019 489 358 26 80 1584 1276 389 37 1288 255 33 1636 1328 323
leaf_count=98 433 1818 1251 2260 1355 28899 947 20619 10283 1584 51 591 1612 2589 105 1019 489 358 26 80 1584 1276 389 37 1288 255 33 1636 1328 323
internal_value=-0.00122435 0.0116934 -0.00924784 -0.00555387 -0.0274926 -0.00305462 -0.000237888 0.00386706 -0.0103433 0.00320812 0.0365516 -0.0371518 0.00206244 0.0330684 0.025455 -0.0388991 -0.0302177 0.0163234 0.0367769 -0.00142857 -0.0260733 0.0368564 -0.0425247 0.0107407 -0.039028 0.0467595 0.0369048 0.0471973 -0.0458546 0.0468481
internal_weight=84616 32420 52196 46094 4714 41380 29846 24657 11534 24173 7763 6102 22231 5788 1923 3279 2664 1942 484 1435 2073 3865 3438 135 1677 1975 84 1891 1761 349
internal_count=84616 32420 52196 46094 4714 41380 29846 24657 11534 24173 7763 6102 22231 5788 1923 3279 2664 1942 484 1435 2073 3865 3438 135 1677 1975 84 1891 1761 349
is_linear=0
shrinkage=0.05


Tree=5
num_leaves=31
num_cat=0
split_feature=14 8 13 14 8 7 7 5 6 8 13 14 6 7 5 8 5 5 6 5 9 18 5 12 14 7 6 6 9 24
split_gain=3379.52 1595.98 1295.28 943.083 680.154 367.043 323.461 232.893 230.373 176.977 158.492 146.157 145.792 110.585 107.751 95.667 61.8497 51.0519 40.2938 31.2412 29.7474 17.9992 17.8926 12.8615 11.8267 10.5318 9.84748 8.8074 7.90134 7.06321
threshold=2.5000000000000004 2.5000000000000004 2.5000000000000004 3.5000000000000004 2.5000000000000004 3.5000000000000004 2.5000000000000004 2.5000000000000004 2.5000000000000004 3.5000000000000004 2.5000000000000004 1.5000000000000002 2.5000000000000004 1.5000000000000002 3.5000000000000004 2.5000000000000004 2.5000000000000004 1.5000000000000002 3.5000000000000004 2.5000000000000004 2.5000000000000004 0.57735026918962384 1.5000000000000002 2.5000000000000004 3.5000000000000004 2.5000000000000004 2.5000000000000004 2.5000000000000004 1.5000000000000002 1.5000000000000002
decision_type=2 2 2 2 2 2 2 2 2 2 2 2 2 2 2 2 2 2 2 2 2 2 2 2 2 2 2 2 2 2
left_child=1 11 15 4 8 14 20 26 -4 -6 -9 13 17 22 -5 19 -14 -13 -7 25 27 -22 -1 -21 29 -2 -8 -3 -15 -17
right_child=2 6 3 5 9 18 7 10 -10 -11 -12 12 16 28 -16 24 -18 -19 -20 23 21 -23 -24 -25 -26 -27 -28 -29 -30 -31
leaf_value=-3.0468750000000008e-06 -0.038689046875000001 0 -0.038689046875000001 -0.038689046875000001 0 -0.038689046875000001 0 0 0 0 0.038689046875000001 -0.042868750000000004 0 0.038689046875000001 -0.038689046875000001 -0.038689046875000001 0.038689046875000001 0 0 -0.040725312499999999 0 0.038689046875000001 0.00011882812500000001 -0.040725312499999999 -0.038689046875000001 -0.038689046875000001 0.041189046875000003 0 0.038689046875000001 0
leaf_weight=35 1573 417 7746 1776 26685 677 487 380 6149 2719 6452 219 1220 26 1458 503 3306 18004 872 1048 299 405 73 407 58 222 459 310 328 303
leaf_count=35 1573 417 7746 1776 26685 677 487 380 6149 2719 6452 219 1220 26 1458 503 3306 18004 872 1048 299 405 73 407 58 222 459 310 328 303
internal_value=-0.00128167 0.0113973 -0.00915683 -0.00685288 -0.00452551 -0.0279218 0.0290097 0.0330291 -0.0136416 -0.000217657 0.0362485 0.00440955 0.00384413 0.0322511 -0.0375077 -0.0360841 0.0118758 0.00184931 -0.00790833 -0.0400154 0.00716282 0.0144886 -0.012037 -0.0345704 -0.0212963 -0.044429 0.00977801 6.87758e-05 0.0457627 -0.019727
internal_weight=84616 32420 52196 48082 43299 4783 9209 7778 13895 29404 6832 23211 22749 462 3234 4114 4526 18223 1549 3250 1431 704 108 1455 864 1795 946 727 354 806
internal_count=84616 32420 52196 48082 43299 4783 9209 7778 13895 29404 6832 23211 22749 462 3234 4114 4526 18223 1549 3250 1431 704 108 1455 864 1795 946 727 354 806
is_linear=0
shrinkage=0.05


Tree=6
num_leaves=31
num_cat=0
split_feature=14 22 22 14 22 15 20 22 14 15 22 15 20 10 6 5 15 20 22 15 22 22 22 7 15 20 20 5 16 15
split_gain=2176.76 2832.92 2567.93 1181.77 690.358 307.085 355.505 248.687 182.238 169.673 129.003 116.337 448.568 111.075 104.313 94.8599 66.5408 138.594 65.0613 55.4152 46.2995 30.7777 16.0124 13.3192 11.7946 11.513 9.08979 7.96591 7.83594 3.1162
threshold=2.5000000000000004 2.8333333333333335 2.3888888888888897 3.5000000000000004 3.3888888888888897 2.5000000000000004 1.5000000000000002 3.7222222222222228 1.5000000000000002 2.5000000000000004 2.5000000000000004 2.5000000000000004 1.0000000180025095e-35 1.5000000000000002 2.5000000000000004 2.5000000000000004 2.5000000000000004 1.0000000180025095e-35 3.1666666666666674 3.5000000000000004 2.9444444444444451 1.166666666666667 2.1666666666666674 1.5000000000000002 2.5000000000000004 1.5000000000000002 1.5000000000000002 2.5000000000000004 149.50000000000003 2.5000000000000004
decision_type=2 2 2 2 2 2 2 2 2 2 2 2 2 2 2 2 2 2 2 2 2 2 2 2 2 2 2 2 2 2
left_child=1 8 15 5 18 6 -4 -7 13 14 -11 12 28 21 -10 22 25 -18 -5 -6 -14 -1 29 -15 -24 -17 -13 -28 -3 -2
right_child=2 11 3 4 19 7 -8 -9 9 10 -12 26 20 23 -16 16 17 -19 -20 -21 -22 -23 24 -25 -26 -27 27 -29 -30 -31
leaf_value=-2.8945312500000009e-06 -0.036754594531249997 -0.0043015781249999994 -0.041290860156249998 -0.036754594531249997 -0.043190547656250002 0 0 0.042868750000000004 0 0 0.040606562499999999 0.036754594531249997 0.036754594531249997 0.038683105468750006 0 -0.036754594531249997 0.0063341398437500003 -0.038790860156250002 -0.036754594531249997 0 0.036754594531249997 0.00011288671875000002 -0.036754594531249997 0.036754594531249997 -0.036754594531249997 -0.036754594531249997 0.036629594531249997 0.036754594531249997 -0.0040957179687499999 -0.036754594531249997
leaf_weight=37 433 76 1343 2260 254 38063 1060 914 18278 1000 970 1462 1255 20 3925 439 146 1927 1019 1181 4205 69 389 358 1288 152 34 479 252 1328
leaf_count=37 433 76 1343 2260 254 38063 1060 914 18278 1000 970 1462 1255 20 3925 439 146 1927 1019 1181 4205 69 389 358 1288 152 34 479 252 1328
internal_value=-0.000235771 0.00993985 -0.00655606 -0.00252094 -0.026241 0.000181247 -0.017166 0.00125074 0.00164659 0.00103835 0.0151015 0.0362811 0.0327056 0.0320248 -0.000209431 -0.037037 -0.029955 -0.0257356 -0.0388991 0.00268293 0.0361172 -0.0132075 -0.0425247 0.044709 -0.039028 -0.0447547 0.0467595 0.0410331 -0.0240854 -0.0458546
internal_weight=84616 32420 52196 46094 4714 41380 2403 38977 24657 24173 1970 7763 5788 484 22203 6102 2664 2073 3279 1435 5460 106 3438 378 1677 591 1975 513 328 1761
internal_count=84616 32420 52196 46094 4714 41380 2403 38977 24657 24173 1970 7763 5788 484 22203 6102 2664 2073 3279 1435 5460 106 3438 378 1677 591 1975 513 328 1761
is_linear=0
shrinkage=0.05


Tree=7
num_leaves=31
num_cat=0
split_feature=14 22 22 14 22 22 22 14 15 15 20 22 10 5 20 15 20 22 15 15 22 22 22 7 15 20 20 5 16 15
split_gain=2114.89 2841.88 2600.8 1199.56 694.993 260.55 194.273 182.896 154.824 116.337 448.568 115.37 111.075 94.8599 94.7007 66.5408 138.594 65.0613 52.0772 49.9466 46.2995 30.7777 16.0124 13.3192 11.7946 11.513 9.08979 7.96591 7.83594 3.1162
threshold=2.5000000000000004 2.8333333333333335 2.3888888888888897 3.5000000000000004 3.3888888888888897 3.7222222222222228 2.5000000000000004 1.5000000000000002 2.5000000000000004 2.5000000000000004 1.0000000180025095e-35 2.6111111111111112 1.5000000000000002 2.5000000000000004 1.0000000180025095e-35 2.5000000000000004 1.0000000180025095e-35 3.1666666666666674 3.5000000000000004 3.5000000000000004 2.9444444444444451 1.166666666666667 2.1666666666666674 1.5000000000000002 2.5000000000000004 1.5000000000000002 1.5000000000000002 2.5000000000000004 149.50000000000003 2.5000000000000004
decision_type=2 2 2 2 2 2 2 2 2 2 2 2 2 2 2 2 2 2 2 2 2 2 2 2 2 2 2 2 2 2
left_child=1 7 13 5 17 6 -4 12 14 10 28 -10 21 22 -9 25 -17 -5 -6 -7 -12 -1 29 -14 -24 -15 -11 -28 -3 -2
right_child=2 9 3 4 18 19 -8 8 11 26 20 -13 23 15 -16 16 -18 -19 -20 -21 -22 -23 24 -25 -26 -27 27 -29 -30 -31
leaf_value=-2.7498046875000007e-06 -0.034916864804687496 -0.0040864992187500003 -0.041290860156249998 -0.034916864804687496 -0.041031020273437503 0.040725312499999999 0 0 0 0.034916864804687496 0.034916864804687496 0.03686770390625 0.036748950195312505 -0.034916864804687496 0 0.0060174328515625007 -0.0368513171484375 -0.034916864804687496 0 0.038469062500000005 0.034916864804687496 0.00010724238281250002 -0.034916864804687496 0.034916864804687496 -0.034916864804687496 -0.034916864804687496 0.034798114804687495 0.034916864804687496 -0.0038909320703125003 -0.034916864804687496
leaf_weight=37 433 76 2273 2260 254 753 38160 3364 1270 1462 1255 700 20 439 18839 146 1927 1019 1181 194 4205 69 389 358 1288 152 34 479 252 1328
leaf_count=37 433 76 2273 2260 254 753 38160 3364 1270 1462 1255 700 20 439 18839 146 1927 1019 1181 194 4205 69 389 358 1288 152 34 479 252 1328
internal_value=-0.000131772 0.00989821 -0.0063616 -0.00230073 -0.0261986 0.000421701 -0.000185492 0.00159184 0.000982501 0.0362811 0.0327056 0.0144162 0.0320248 -0.037037 -0.000209431 -0.029955 -0.0257356 -0.0388991 0.0028223 0.0263464 0.0361172 -0.0132075 -0.0425247 0.044709 -0.039028 -0.0447547 0.0467595 0.0410331 -0.0240854 -0.0458546
internal_weight=84616 32420 52196 46094 4714 41380 40433 24657 24173 7763 5788 1970 484 6102 22203 2664 2073 3279 1435 947 5460 106 3438 378 1677 591 1975 513 328 1761
internal_count=84616 32420 52196 46094 4714 41380 40433 24657 24173 7763 5788 1970 484 6102 22203 2664 2073 3279 1435 947 5460 106 3438 378 1677 591 1975 513 328 1761
is_linear=0
shrinkage=0.05


Tree=8
num_leaves=31
num_cat=0
split_feature=14 8 12 14 5 7 5 7 7 23 15 14 13 8 20 13 6 7 20 15 20 5 15 20 15 20 20 8 5 15
split_gain=2110.16 1775 1399.78 1101.53 527.195 466.853 382.87 259.96 202.833 199.305 166.751 161.224 158.492 154.871 114.506 120.271 109.853 100.7 91.8276 80.4424 122.065 56.8618 44.1607 22.9526 15.403 21.909 19.0842 12.7175 9.63182 5.21491
threshold=2.5000000000000004 2.5000000000000004 2.5000000000000004 3.5000000000000004 2.5000000000000004 3.5000000000000004 2.5000000000000004 2.5000000000000004 2.5000000000000004 0.38714594258871599 2.5000000000000004 1.5000000000000002 2.5000000000000004 3.5000000000000004 1.5000000000000002 2.5000000000000004 3.5000000000000004 1.5000000000000002 1.0000000180025095e-35 2.5000000000000004 1.0000000180025095e-35 3.5000000000000004 2.5000000000000004 1.5000000000000002 2.5000000000000004 1.5000000000000002 1.0000000180025095e-35 2.5000000000000004 2.5000000000000004 2.5000000000000004
decision_type=2 2 2 2 2 2 2 2 2 2 2 2 2 2 2 2 2 2 2 2 2 2 2 2 2 2 2 2 2 2
left_child=1 10 9 4 8 16 24 22 -4 27 11 17 -9 -6 15 -12 -5 -1 -13 23 -21 -7 -8 -11 26 -26 -3 29 -16 -2
right_child=2 6 3 5 13 21 7 12 -10 19 14 18 -14 -15 28 -17 -18 -19 -20 20 -22 -23 -24 -25 25 -27 -28 -29 -30 -31
leaf_value=-2.6123144531250007e-06 -0.033171021564453125 0 -0.033171021564453125 -0.033171021564453125 0 -0.033171021564453125 0 0 0 -0.035105473908203122 -0.00225625 0 0.033171021564453125 0 0 0.036958771054687499 -0.033171021564453125 0.033171021564453125 0 0.0019344523437500002 -0.034906938009765624 0 0.035105473908203122 -0.033171021564453125 0.035421021564453127 0 0 0 0 -0.033171021564453125
leaf_weight=104 489 133 1674 2614 36222 333 798 380 2224 354 169 3184 6452 2610 332 885 591 331 17661 204 1964 1217 139 135 97 76 1134 56 545 1509
leaf_count=104 489 133 1674 2614 36222 333 798 380 2224 354 169 3184 6452 2610 332 885 591 331 17661 204 1964 1217 139 135 97 76 1134 56 545 1509
internal_value=-0.000120545 0.00989821 -0.0063434 -0.00376435 -0.00122396 -0.0265931 0.0284721 0.0328614 -0.0187532 -0.0323392 0.00252897 0.00125235 0.0362485 0.000535641 0.0165976 0.027704 -0.0374883 0.0313793 0.000623651 -0.023297 -0.0191651 -0.00406452 0.00816435 -0.0416155 0.00479167 0.0187861 0.00288082 -0.044036 0.00324971 -0.0446947
internal_weight=84616 32420 52196 47485 42730 4755 9209 7769 3898 4711 23211 21280 6832 38832 1931 1054 3205 435 20845 2657 2168 1550 937 489 1440 173 1267 2054 877 1998
internal_count=84616 32420 52196 47485 42730 4755 9209 7769 3898 4711 23211 21280 6832 38832 1931 1054 3205 435 20845 2657 2168 1550 937 489 1440 173 1267 2054 877 1998
is_linear=0
shrinkage=0.05


Tree=9
num_leaves=31
num_cat=0
split_feature=14 8 5 14 7 13 7 5 7 14 13 8 7 8 10 6 6 5 14 10 6 5 9 11 13 13 14 11 8 7
split_gain=2064.17 1774.42 1381.74 1057.82 458.222 398.865 397.081 382.87 259.96 161.704 158.492 158.08 124.922 121.26 106.927 106.194 105.702 94.645 73.0386 64.7425 62.9594 49.0646 33.8968 30.021 24.0815 17.8855 13.945 13.7961 9.912 2.82003
threshold=2.5000000000000004 2.5000000000000004 2.5000000000000004 3.5000000000000004 3.5000000000000004 2.5000000000000004 2.5000000000000004 2.5000000000000004 2.5000000000000004 1.5000000000000002 2.5000000000000004 3.5000000000000004 2.5000000000000004 2.5000000000000004 1.5000000000000002 2.5000000000000004 3.5000000000000004 3.5000000000000004 3.5000000000000004 2.5000000000000004 2.5000000000000004 3.5000000000000004 2.5000000000000004 2.5000000000000004 2.5000000000000004 1.5000000000000002 1.5000000000000002 3.5000000000000004 1.5000000000000002 3.5000000000000004
decision_type=2 2 2 2 2 2 2 2 2 2 2 2 2 2 2 2 2 2 2 2 2 2 2 2 2 2 2 2 2 2
left_child=1 9 6 5 16 13 20 26 22 14 -10 -7 15 -4 25 -11 -5 -14 19 -8 24 -6 -9 -22 -2 -1 -3 -28 -16 -20
right_child=2 7 3 4 21 11 18 8 10 12 -12 -13 17 -15 28 -17 -18 -19 29 -21 23 -23 -24 -25 -26 -27 27 -29 -30 -31
leaf_value=-2.4816987304687507e-06 -0.031512470486230473 0.039980473908203126 -0.033248386931542973 -0.031512470486230473 -0.031512470486230473 0 -0.033171021564453125 0 0 0 0.031512470486230473 0 0 0 0.031512470486230473 0 -0.031512470486230473 0.033171021564453125 -0.031512470486230473 0 -0.033360127007714846 0 0.033269045015527347 -0.033800674663964851 -0.031512470486230473 0.042470086438671874 0 0.037605473908203124 0.031512470486230473 -0.032479696658105475
leaf_weight=50 1516 21 1408 2482 305 36528 1051 434 380 14033 6452 2617 5674 593 44 2115 573 927 167 1524 509 1223 503 151 1515 56 1353 66 312 34
leaf_count=50 1516 21 1408 2482 305 36528 1051 434 380 14033 6452 2617 5674 593 44 2115 573 927 167 1524 509 1223 503 151 1515 56 1353 66 312 34
internal_value=-7.68176e-06 0.0099013 -0.00616235 -0.00310306 -0.0258892 -0.000565061 -0.027795 0.0284721 0.0328614 0.00253328 0.0362485 0.000547963 0.00193855 -0.0223388 0.0318182 -0.000430394 -0.0370704 0.00773368 -0.0135086 -0.0112427 -0.0385397 -0.00353403 0.00816435 -0.0245455 -0.0415869 -0.0122642 0.00479167 0.00419309 0.0449438 -0.0425373
internal_weight=84616 32420 52196 45729 4583 41146 6467 9209 7769 23211 6832 39145 22749 2001 462 16148 3055 6601 2776 2575 3691 1528 937 660 3031 106 1440 1419 356 201
internal_count=84616 32420 52196 45729 4583 41146 6467 9209 7769 23211 6832 39145 22749 2001 462 16148 3055 6601 2776 2575 3691 1528 937 660 3031 106 1440 1419 356 201
is_linear=0
shrinkage=0.05


Tree=10
num_leaves=31
num_cat=0
split_feature=14 22 22 14 22 22 22 14 15 15 20 22 22 20 22 22 15 20 15 15 22 22 22 15 20 20 26 15 8 8
split_gain=1999.09 2858.72 2655.66 1236.42 694.993 252.453 194.206 187.257 157.974 117.484 466.925 115.831 106.93 99.9944 88.6124 65.0613 52.103 115.72 52.0772 49.9466 46.2995 35.5231 22.902 17.3597 9.53423 9.08979 7.94353 6.72473 5.72003 2.90515
threshold=2.5000000000000004 2.8333333333333335 2.3888888888888897 3.5000000000000004 3.3888888888888897 3.7222222222222228 2.5000000000000004 1.5000000000000002 2.5000000000000004 2.5000000000000004 1.0000000180025095e-35 2.5000000000000004 1.9444444444444446 1.0000000180025095e-35 2.2777777777777781 3.1666666666666674 2.5000000000000004 1.0000000180025095e-35 3.5000000000000004 3.5000000000000004 2.9444444444444451 1.166666666666667 2.1666666666666674 2.5000000000000004 1.5000000000000002 1.5000000000000002 299.00000000000006 2.5000000000000004 2.5000000000000004 1.5000000000000002
decision_type=2 2 2 2 2 2 2 2 2 2 2 2 2 2 2 2 2 2 2 2 2 2 2 2 2 2 2 2 2 2
left_child=1 7 14 5 15 6 -4 12 13 10 26 -10 21 -9 22 -5 24 -18 -6 -7 -12 -1 27 -24 -16 -11 -3 -2 -27 -14
right_child=2 9 3 4 18 19 -8 8 11 25 20 -13 29 -15 16 -17 17 -19 -20 -21 -22 -23 23 -25 -26 28 -28 -29 -30 -31
leaf_value=-2.357613793945313e-06 -0.029936846961918947 -0.0067854887040966795 -0.037891830045903324 -0.029936846961918947 -0.035745294657231447 0.038689046875000001 0 0 0 0.029936846961918947 0.031507569313676757 0.034884910626953126 0.029936846961918947 0 -0.033171021564453125 -0.029936846961918947 0.0057165612089843752 -0.033263404390527343 0 0.036545609375000003 0.029936846961918947 0.036369753211918945 -0.029936846961918947 -0.029936846961918947 -0.033171021564453125 0.033171021564453125 -0.0065429653461889642 -0.029936846961918947 0.029936846961918947 0.029936846961918947
leaf_weight=37 601 76 2273 2260 254 753 38160 3364 1000 1462 1255 970 26 18839 312 1019 109 1525 1181 194 4205 98 392 1238 108 80 252 1817 433 323
leaf_count=37 601 76 2273 2260 254 753 38160 3364 1000 1462 1255 970 26 18839 312 1019 109 1525 1181 194 4205 98 392 1238 108 80 252 1817 433 323
internal_value=1.71362e-05 0.00976866 -0.00603973 -0.00193626 -0.0261986 0.000827695 0.00023001 0.00143773 0.000821164 0.0362296 0.0326365 0.0143909 0.0322314 -0.000382831 -0.037037 -0.0388991 -0.0285784 -0.024541 0.0028223 0.0263464 0.0361172 -0.00555556 -0.0413291 -0.0367485 -0.0442857 0.0467595 -0.0253049 -0.0444169 0.0410331 0.0468481
internal_weight=84616 32420 52196 46094 4714 41380 40433 24657 24173 7763 5788 1970 484 22203 6102 3279 2054 1634 1435 947 5460 135 4048 1630 420 1975 328 2418 513 349
internal_count=84616 32420 52196 46094 4714 41380 40433 24657 24173 7763 5788 1970 484 22203 6102 3279 2054 1634 1435 947 5460 135 4048 1630 420 1975 328 2418 513 349
is_linear=0
shrinkage=0.05


Tree=11
num_leaves=31
num_cat=0
split_feature=22 15 20 15 20 22 20 15 20 22 22 8 20 22 22 22 15 22 23 26 22 22 22 15 22 3 15 22 22 16
split_gain=1441.54 788.536 527.653 436.259 1079.44 499.182 390.555 311.399 1408.93 937.361 206.451 151.171 212.428 121.288 115.709 102.273 74.4133 86.771 46.7543 45.0309 44.0269 37.5918 33.4463 30.7674 26.0412 22.0221 17.8369 13.1537 10.9189 10.837
threshold=2.5000000000000004 2.5000000000000004 1.0000000180025095e-35 3.5000000000000004 1.0000000180025095e-35 3.3888888888888897 1.0000000180025095e-35 2.5000000000000004 1.0000000180025095e-35 2.8333333333333335 2.2777777777777781 2.5000000000000004 1.0000000180025095e-35 2.1666666666666674 3.7222222222222228 2.9444444444444451 1.5000000000000002 1.8333333333333335 0.68688672392660732 451.00000000000006 2.3888888888888897 1.166666666666667 3.0555555555555558 4.5000000000000009 2.1666666666666674 50.500000000000007 1.5000000000000002 2.0555555555555558 3.7222222222222228 198.50000000000003
decision_type=2 2 2 2 2 2 2 2 2 2 2 2 2 2 2 2 2 2 2 2 2 2 2 2 2 2 2 2 2 2
left_child=1 6 13 7 22 18 19 8 15 -10 27 12 -9 29 -13 -2 17 -8 -6 26 -12 -18 -5 -7 -21 -15 -1 -4 -24 -3
right_child=3 2 10 4 5 23 16 11 9 -11 20 14 -14 25 -16 -17 21 -19 -20 24 -22 -23 28 -25 -26 -27 -28 -29 -30 -31
leaf_value=-0.047500000000000001 -0.004639028244580322 -0.0021434374999999999 -0.028440004613823001 0.028440004613823001 -0.028440004613823001 0 -2.2397331042480474e-06 0.0019344523437500002 0 0.028440004613823001 -0.030648676742392578 0 0 -0.0064791885527343751 0.036754594531249997 -0.0066034118020216054 -0.040725312499999999 0.028440004613823001 -0.028440004613823001 0 -0.039231413146142341 0 0.045243749999999999 -0.042868750000000004 0 0.0083452255452639169 0 -0.028440004613823001 0.034718328906249998 -0.0021434374999999999
leaf_weight=89 1450 97 1173 162 1848 995 95 1838 5467 6115 1647 29628 7715 39 789 725 80 239 557 1175 1937 14155 509 42 1196 668 1686 2051 343 106
leaf_count=89 1450 97 1173 162 1848 995 95 1838 5467 6115 1647 29628 7715 39 789 725 80 239 557 1175 1937 14155 509 42 1196 668 1686 2051 343 106
internal_value=8.86357e-06 -0.00967351 -0.0231213 0.00440764 -0.0106261 -0.0239831 -0.00412771 0.00565451 0.0121429 0.019077 -0.027901 0.00342132 0.0089082 0.0126374 0.00169806 -0.0247816 -0.000274556 0.0230539 -0.0364865 -0.0176676 -0.0196429 -0.000821918 0.034714 0.00501446 -0.013159 0.0224187 -0.0236901 -0.0370813 0.0386737 -0.0214286
internal_weight=84616 26433 7718 58183 4456 3442 18715 53727 13757 11582 6808 39970 9553 910 30417 2175 14569 334 2405 4146 3584 14235 1014 1037 2371 707 1775 3224 852 203
internal_count=84616 26433 7718 58183 4456 3442 18715 53727 13757 11582 6808 39970 9553 910 30417 2175 14569 334 2405 4146 3584 14235 1014 1037 2371 707 1775 3224 852 203
is_linear=0
shrinkage=0.05


Tree=12
num_leaves=31
num_cat=0
split_feature=14 22 22 14 22 15 15 22 14 15 20 22 5 6 20 15 20 22 22 22 5 20 16 22 15 20 20 5 16 15
split_gain=2537.2 2653.92 2481.19 1264.09 546.085 479.603 466.296 253.113 178.705 117.484 466.925 103.26 94.8599 94.7462 75.0487 66.5408 138.594 65.0613 60.6705 46.2995 25.1141 27.2063 16.2196 16.0124 11.7946 11.513 9.08979 7.96591 7.94353 3.1162
threshold=2.5000000000000004 2.8333333333333335 2.3888888888888897 3.5000000000000004 3.3888888888888897 2.5000000000000004 2.5000000000000004 3.7222222222222228 1.5000000000000002 2.5000000000000004 1.0000000180025095e-35 1.9444444444444446 2.5000000000000004 2.5000000000000004 1.0000000180025095e-35 2.5000000000000004 1.0000000180025095e-35 3.1666666666666674 2.6111111111111112 2.9444444444444451 2.5000000000000004 1.5000000000000002 35.500000000000007 2.1666666666666674 2.5000000000000004 1.5000000000000002 1.5000000000000002 2.5000000000000004 149.50000000000003 2.5000000000000004
decision_type=2 2 2 2 2 2 2 2 2 2 2 2 2 2 2 2 2 2 2 2 2 2 2 2 2 2 2 2 2 2
left_child=1 6 12 5 17 18 8 -7 11 10 28 -1 23 -10 -6 25 -17 -5 -4 -12 21 -8 -22 29 -25 -14 -11 -28 -3 -2
right_child=2 9 3 4 14 7 20 -9 13 26 19 -13 15 -15 -16 16 -18 -19 -20 -21 22 -23 -24 24 -26 -27 27 -29 -30 -31
leaf_value=-2.1277464490356451e-06 -0.028440004613823001 -0.0061160436787907647 -0.034831725646142335 -0.027018004383131844 -0.0017359164453125001 0 0.033043942478417965 0.034916864804687496 0 0.028440004613823001 0.02851019061730177 0.028321254613823 -0.030654672893119874 0 0 0.0050134718712719602 -0.030325676084401378 -0.027018004383131844 -0.0014220002306911501 0.027018004383131844 0.00044178544399913356 0.0014220002306911501 0.03173631327519532 -0.028440004613823001 -0.027018004383131844 -0.030302657459157598 0.031561366716357175 0.028440004613823001 -0.0059347560777144688 -0.027018004383131844
leaf_weight=131 433 76 674 2260 384 38063 301 914 18278 1462 1255 323 439 3925 1051 146 1927 1019 1729 4205 44 374 1281 389 1288 152 34 479 252 1328
leaf_count=131 433 76 674 2260 384 38063 301 914 18278 1462 1255 323 439 3925 1051 146 1927 1019 1729 4205 44 374 1281 389 1288 152 34 479 252 1328
internal_value=-0.000251725 0.0107341 -0.00707525 -0.00310886 -0.0276411 -0.000314161 0.00270714 0.0010224 0.000664254 0.0362296 0.0326365 0.0317181 -0.037037 2.92753e-05 -0.00191638 -0.029955 -0.0257356 -0.0388991 -0.0219933 0.0361172 0.02585 0.018 0.0298491 -0.0425247 -0.039028 -0.0447547 0.0467595 0.0410331 -0.0253049 -0.0458546
internal_weight=84616 32420 52196 46094 4714 41380 24657 38977 22657 7763 5788 454 6102 22203 1435 2664 2073 3279 2403 5460 2000 675 1325 3438 1677 591 1975 513 328 1761
internal_count=84616 32420 52196 46094 4714 41380 24657 38977 22657 7763 5788 454 6102 22203 1435 2664 2073 3279 2403 5460 2000 675 1325 3438 1677 591 1975 513 328 1761
is_linear=0
shrinkage=0.05


Tree=13
num_leaves=31
num_cat=0
split_feature=7 17 9 17 12 17 8 5 20 5 8 6 20 17 20 8 6 11 26 26 16 20 7 5 5 17 12 8 20 6
split_gain=859.327 367.221 215.598 164.352 161.262 134.235 121.947 92.4801 92.2537 133.813 64.8461 77.8824 62.3603 58.9576 57.0874 51.4106 44.3085 40.4688 36.6646 33.0039 34.2781 31.322 30.6382 29.9527 28.2829 26.612 24.6444 21.8197 18.992 14.2266
threshold=2.5000000000000004 2.8333333333333335 2.5000000000000004 2.1666666666666674 2.5000000000000004 3.1666666666666674 3.5000000000000004 2.5000000000000004 1.0000000180025095e-35 2.5000000000000004 3.5000000000000004 2.5000000000000004 1.0000000180025095e-35 2.5833333333333335 1.0000000180025095e-35 2.5000000000000004 2.5000000000000004 2.5000000000000004 511.00000000000006 449.00000000000006 228.50000000000003 1.0000000180025095e-35 1.5000000000000002 2.5000000000000004 3.5000000000000004 2.8333333333333335 3.5000000000000004 2.5000000000000004 1.0000000180025095e-35 2.5000000000000004
decision_type=2 2 2 2 2 2 2 2 2 2 2 2 2 2 2 2 2 2 2 2 2 2 2 2 2 2 2 2 2 2
left_child=3 2 17 12 13 10 14 25 18 -10 11 -3 19 29 -7 -9 22 27 -4 -1 -21 -15 -14 -18 -8 -6 -12 -2 -19 -5
right_child=1 5 8 4 7 6 24 15 9 -11 26 -13 16 21 -16 -17 23 28 -20 20 -22 -23 -24 -25 -26 -27 -28 -29 -30 -31
leaf_value=0 0 0 0 0 0 0 0 0 0 0 0 0 0 0 0 0 0 0 0 0.0047627982777083619 0 -0.025667104163975253 0 -0.0019344523437500002 0 -0.025667104163975253 0.031236569220703128 0 0 -0.0019344523437500002
leaf_weight=783 2472 5045 1889 2942 1880 673 243 6059 1547 12017 1351 18742 482 1047 4326 1680 327 590 1856 153 1114 2477 7308 772 878 1257 544 570 3196 396
leaf_count=783 2472 5045 1889 2942 1880 673 243 6059 1547 12017 1351 18742 482 1047 4326 1680 327 590 1856 153 1114 2477 7308 772 878 1257 544 570 3196 396
internal_value=-0.000433724 0.00317399 0.00782409 -0.00747114 -0.0104437 -0.000355324 -0.0070098 -0.00665686 0.0107921 0.0127101 0.00123043 0.000521293 -0.00265106 -0.0164456 -0.0103521 -0.00372141 -0.000838115 0.000300234 0.00384513 -0.0105122 -0.00552486 -0.0209563 0.000487805 -0.0102366 0.00789474 -0.0138986 0.0101319 -0.00399408 0.00375066 -0.0116836
internal_weight=84616 55939 24137 28677 17738 31802 6120 10876 17309 13564 25682 23787 10939 6862 4999 7739 8889 6828 3745 2050 1267 3524 7790 1099 1121 3137 1895 3042 3786 3338
internal_count=84616 55939 24137 28677 17738 31802 6120 10876 17309 13564 25682 23787 10939 6862 4999 7739 8889 6828 3745 2050 1267 3524 7790 1099 1121 3137 1895 3042 3786 3338
is_linear=0
shrinkage=0.05


Tree=14
num_leaves=31
num_cat=0
split_feature=14 8 13 14 5 7 5 11 7 8 13 8 14 5 10 9 5 5 20 6 11 18 14 5 13 14 7 8 10 1
split_gain=2802.58 1545.94 1151.24 1143.93 460.059 346.524 341.435 291.37 238.253 207.592 153.511 153.428 141.102 107.751 103.429 83.3285 62.3425 59.4911 53.9594 49.9892 35.8021 26.0279 26.0097 21.5104 16.1889 12.7736 10.5318 9.912 9.40904 0.725123
threshold=2.5000000000000004 2.5000000000000004 2.5000000000000004 3.5000000000000004 2.5000000000000004 3.5000000000000004 2.5000000000000004 2.5000000000000004 2.5000000000000004 2.5000000000000004 2.5000000000000004 3.5000000000000004 1.5000000000000002 3.5000000000000004 1.5000000000000002 2.5000000000000004 3.5000000000000004 2.5000000000000004 1.0000000180025095e-35 2.5000000000000004 2.5000000000000004 0.57735026918962384 3.5000000000000004 2.5000000000000004 1.5000000000000002 1.5000000000000002 2.5000000000000004 1.5000000000000002 3.5000000000000004 1.5000000000000002
decision_type=2 2 2 2 2 2 2 2 2 2 2 2 2 2 2 2 2 2 2 2 2 2 2 2 2 2 2 2 2 2
left_child=1 12 9 4 7 13 25 -4 21 17 -10 -6 14 -5 24 19 -17 26 -7 -14 -19 -8 23 -11 -1 -3 -2 -16 -27 -24
right_child=2 6 3 5 11 18 8 -9 10 22 -12 -13 15 -15 27 16 -18 20 -20 -21 -22 -23 29 -25 -26 28 -28 -29 -30 -31
leaf_value=-5.124227454190063e-06 -0.025667104163975253 0.035068545134005868 -0.025667104163975253 -0.02708910439466641 0 -0.0032109490840820315 0 0 0 -0.026856295653005138 0.025667104163975253 0 0 -0.025667104163975253 0.027023941883131848 0 0.02724272768828678 -0.026718661865651385 0 0 -0.029287283901834129 0.027237826515733067 -0.027955308341709631 0 0.037269994818690019 0 -0.02724272768828678 0.027012928191725596 0.032731205251193371 -0.02708910439466641
leaf_weight=50 1573 21 2393 1776 36528 409 436 1761 380 213 6452 2617 15764 1458 44 3463 567 1224 1140 2955 231 501 35 593 56 1309 222 312 110 23
leaf_count=50 1573 21 2393 1776 36528 409 436 1761 380 213 6452 2617 15764 1458 44 3463 567 1224 1140 2955 231 501 35 593 56 1309 222 312 110 23
internal_value=1.00454e-05 0.0115561 -0.00716147 -0.00498939 -0.00242615 -0.0281936 0.0288902 -0.0182475 0.0330351 -0.0325474 0.0362778 -0.000747222 0.00467882 -0.0375077 0.0320346 0.00412326 0.0106452 -0.0383385 -0.00874758 0.00271916 -0.0308247 0.00939168 -0.0107639 -0.00843672 -0.0113208 0.00652778 -0.044429 0.0449438 0.0059549 -0.0431034
internal_weight=84616 32420 52196 48082 43299 4783 9209 4154 7769 4114 6832 39145 23211 3234 462 22749 4030 3250 1549 18719 1455 937 864 806 106 1440 1795 356 1419 58
internal_count=84616 32420 52196 48082 43299 4783 9209 4154 7769 4114 6832 39145 23211 3234 462 22749 4030 3250 1549 18719 1455 937 864 806 106 1440 1795 356 1419 58
is_linear=0
shrinkage=0.05


Tree=15
num_leaves=31
num_cat=0
split_feature=14 22 22 14 22 15 22 17 14 15 22 5 23 15 15 18 17 15 22 22 17 17 22 23 22 15 5 0 8 15
split_gain=2769.16 2509.01 2468.36 1268.15 533.807 475.921 254.839 246.976 151.36 117.197 101.93 94.8599 80.1129 74.6424 72.6629 70.492 95.0687 66.5408 65.0613 60.6705 47.8706 43.6748 39.3818 31.8411 16.0124 11.7946 3.40804 4.37 3.47948 3.1162
threshold=2.5000000000000004 2.8333333333333335 2.3888888888888897 3.5000000000000004 3.3888888888888897 2.5000000000000004 3.7222222222222228 2.5833333333333335 1.5000000000000002 2.5000000000000004 1.9444444444444446 2.5000000000000004 0.47047927592204924 2.5000000000000004 2.5000000000000004 0.57735026918962384 2.8333333333333335 2.5000000000000004 3.1666666666666674 2.6111111111111112 3.1666666666666674 2.8333333333333335 2.1666666666666674 0.71679496922166341 2.1666666666666674 2.5000000000000004 2.5000000000000004 52.500000000000007 2.5000000000000004 2.5000000000000004
decision_type=2 2 2 2 2 2 2 2 2 2 2 2 2 2 2 2 2 2 2 2 2 2 2 2 2 2 2 2 2 2
left_child=1 7 11 5 18 19 -7 8 10 15 -1 24 21 -10 -14 16 -3 -13 -5 -4 -6 -9 -19 -17 29 -26 27 -11 -28 -2
right_child=2 9 3 4 20 6 -8 12 13 26 -12 17 14 -15 -16 23 -18 22 -20 -21 -22 -23 -24 -25 25 -27 28 -29 -30 -31
leaf_value=-1.7651477538743592e-06 -0.025734649174933084 0.024383748955776493 -0.032960048699772718 -0.024383748955776493 -0.0014885731688427735 0 0.031609193103417969 0.0012833552081987628 0 0.030123220159494153 0.024251295242854416 -0.028386171876291028 0 0.026949805830097137 0.031457126814658197 0.024383748955776493 -0.0044008798837232794 -0.024531552900477323 -0.025667104163975253 -0.0013509002191565925 0 0 -0.028228112286410457 0.027661898218326056 -0.025734649174933084 -0.024383748955776493 0.028307517815744157 0.029983298380539321 0.025734649174933084 -0.023100393747577733
leaf_weight=126 433 1818 674 2260 538 38063 914 705 18778 51 288 591 2060 832 798 3311 105 489 1019 1729 897 1070 1584 554 389 1288 255 33 1636 1328
leaf_count=126 433 1818 674 2260 538 38063 914 705 18778 51 288 591 2060 832 798 3311 105 489 1019 1729 897 1070 1584 554 389 1288 255 33 1636 1328
internal_value=-2.42271e-05 0.0114528 -0.00715285 -0.00319673 -0.0277683 -0.000397535 0.000933884 0.00364805 0.00124101 0.0362424 0.0311594 -0.037037 0.0140514 0.000609383 0.00886984 0.0326538 0.024831 -0.029955 -0.0388991 -0.0219933 -0.00233449 0.0223944 -0.0257356 0.0365459 -0.0425247 -0.039028 0.0467595 0.0369048 0.0471973 -0.0458546
internal_weight=84616 32420 52196 46094 4714 41380 38977 24657 20024 7763 414 6102 4633 19610 2858 5788 1923 2664 3279 2403 1435 1775 2073 3865 3438 1677 1975 84 1891 1761
internal_count=84616 32420 52196 46094 4714 41380 38977 24657 20024 7763 414 6102 4633 19610 2858 5788 1923 2664 3279 2403 1435 1775 2073 3865 3438 1677 1975 84 1891 1761
is_linear=0
shrinkage=0.05


Tree=16
num_leaves=31
num_cat=0
split_feature=14 22 22 14 22 15 22 15 14 15 20 22 5 6 20 22 20 15 20 22 22 22 6 22 15 20 20 5 16 15
split_gain=2648.21 2592.65 2472.79 1251.63 552.277 467.322 254.839 180.907 165.179 116.624 453.123 103.26 94.8599 90.0089 80.9518 77.5359 73.1709 66.5408 138.594 65.0613 62.6709 46.2995 16.8019 16.0124 11.7946 11.513 9.08979 7.96591 7.50009 3.1162
threshold=2.5000000000000004 2.8333333333333335 2.3888888888888897 3.5000000000000004 3.3888888888888897 2.5000000000000004 3.7222222222222228 2.5000000000000004 1.5000000000000002 2.5000000000000004 1.0000000180025095e-35 1.9444444444444446 2.5000000000000004 2.5000000000000004 1.0000000180025095e-35 2.6111111111111112 1.5000000000000002 2.5000000000000004 1.0000000180025095e-35 3.1666666666666674 2.6111111111111112 2.9444444444444451 1.5000000000000002 2.1666666666666674 2.5000000000000004 1.5000000000000002 1.5000000000000002 2.5000000000000004 149.50000000000003 2.5000000000000004
decision_type=2 2 2 2 2 2 2 2 2 2 2 2 2 2 2 2 2 2 2 2 2 2 2 2 2 2 2 2 2 2
left_child=1 7 12 5 19 20 -7 8 11 10 28 -1 23 -10 -6 22 -17 25 -19 -5 -4 -12 -9 29 -25 -14 -11 -28 -3 -2
right_child=2 9 3 4 14 6 -8 15 13 26 21 -13 17 -15 -16 16 -18 18 -20 -21 -22 -23 -24 24 -26 -27 27 -29 -30 -31
leaf_value=-1.6768903661806416e-06 -0.02444791671618643 -0.0068735527088638259 -0.03131204626478408 -0.023164561507987669 -0.0019404155650881349 0 0.03002873344824707 -0.0026702365157612747 0 0.02444791671618643 0.024503602312861202 0.024460180026832534 -0.02696686328247648 0 0 0.02860260721295349 0.02717572770509713 0.0061742038920288844 -0.026062053572578216 -0.024383748955776493 -0.001283355208198763 0.023164561507987669 0.0012867324587466544 -0.02444791671618643 -0.023164561507987669 -0.026400166585189025 0.02842126041703848 0.02444791671618643 -0.0069148146220473997 -0.021945374060198843
leaf_weight=131 433 76 674 2260 384 38063 914 48 18278 1462 1255 323 439 3925 1051 444 262 146 1927 1019 1729 4205 1246 389 1288 152 34 479 252 1328
leaf_count=131 433 76 674 2260 384 38063 914 48 18278 1462 1255 323 439 3925 1051 444 262 146 1927 1019 1729 4205 1246 389 1288 152 34 479 252 1328
internal_value=-0.000154817 0.0110688 -0.00712602 -0.00316636 -0.0275774 -0.000385452 0.000933884 0.00313501 0.00186256 0.0362682 0.0326883 0.0317181 -0.037037 0.00125208 -0.00170732 0.01755 0.0308782 -0.029955 -0.0257356 -0.0388991 -0.0217853 0.0361172 0.0102782 -0.0425247 -0.039028 -0.0447547 0.0467595 0.0410331 -0.0243902 -0.0458546
internal_weight=84616 32420 52196 46094 4714 41380 38977 24657 22657 7763 5788 454 6102 22203 1435 2000 706 2664 2073 3279 2403 5460 1294 3438 1677 591 1975 513 328 1761
internal_count=84616 32420 52196 46094 4714 41380 38977 24657 22657 7763 5788 454 6102 22203 1435 2000 706 2664 2073 3279 2403 5460 1294 3438 1677 591 1975 513 328 1761
is_linear=0
shrinkage=0.05


Tree=17
num_leaves=31
num_cat=0
split_feature=14 22 22 14 22 15 22 17 14 15 20 22 5 22 15 20 22 22 20 23 20 22 15 22 15 20 20 5 26 15
split_gain=2577.26 2644.65 2478.18 1218.65 588.02 467.322 254.839 173.334 155.583 115.766 439.527 101.93 94.8599 78.0462 66.5408 138.594 65.0613 62.6709 56.4369 55.1229 48.6427 46.2995 33.1695 16.0124 11.7946 11.513 9.08979 7.96591 7.06939 3.1162
threshold=2.5000000000000004 2.8333333333333335 2.3888888888888897 3.5000000000000004 3.3888888888888897 2.5000000000000004 3.7222222222222228 2.5833333333333335 1.5000000000000002 2.5000000000000004 1.0000000180025095e-35 1.9444444444444446 2.5000000000000004 2.7222222222222228 2.5000000000000004 1.0000000180025095e-35 3.1666666666666674 2.6111111111111112 1.0000000180025095e-35 0.47047927592204924 1.0000000180025095e-35 2.9444444444444451 2.5000000000000004 2.1666666666666674 2.5000000000000004 1.5000000000000002 1.5000000000000002 2.5000000000000004 299.00000000000006 2.5000000000000004
decision_type=2 2 2 2 2 2 2 2 2 2 2 2 2 2 2 2 2 2 2 2 2 2 2 2 2 2 2 2 2 2
left_child=1 7 12 5 16 17 -7 8 11 10 28 -1 23 -10 25 -16 -5 -4 -6 20 -9 -12 -21 29 -25 -14 -11 -28 -3 -2
right_child=2 9 3 4 18 6 -8 19 13 26 21 -13 14 -15 15 -17 -18 -19 -20 22 -22 -23 -24 24 -26 -27 27 -29 -30 -31
leaf_value=-1.5930458478716094e-06 -0.023225520880377111 -0.0065298750734206342 -0.029746443951544878 -0.022006333432588288 -0.0018433947868337281 0 0.028527296775834717 0 0 0.023225520880377111 0.023278422197218141 0.021815721479370068 -0.025618520118352653 0.034380502220517056 0.0058654936974274407 -0.024758950893949305 -0.023164561507987669 -0.0012191874477888249 0 0 0.0012191874477888245 0.022006333432588288 0.028454140113277616 -0.023225520880377111 -0.022006333432588288 -0.025080158255929574 0.027000197396186559 0.023225520880377111 -0.0065690738909450295 -0.020848105357188902
leaf_weight=126 433 76 674 2260 384 38063 914 810 18226 1462 1255 288 439 1384 146 1927 1019 1729 1051 2060 965 4205 798 389 1288 152 34 479 252 1328
leaf_count=126 433 76 674 2260 384 38063 914 810 18226 1462 1255 288 439 1384 146 1927 1019 1729 1051 2060 965 4205 798 389 1288 152 34 479 252 1328
internal_value=-0.000216271 0.010856 -0.00709346 -0.00312947 -0.0272168 -0.000385452 0.000933884 0.00284301 0.000826508 0.0363068 0.0327402 0.0311594 -0.037037 0.00018613 -0.029955 -0.0257356 -0.0388991 -0.0217853 -0.000522648 0.0115584 0.0184789 0.0361172 0.00726032 -0.0425247 -0.039028 -0.0447547 0.0467595 0.0410331 -0.0234756 -0.0458546
internal_weight=84616 32420 52196 46094 4714 41380 38977 24657 20024 7763 5788 414 6102 19610 2664 2073 3279 2403 1435 4633 1775 5460 2858 3438 1677 591 1975 513 328 1761
internal_count=84616 32420 52196 46094 4714 41380 38977 24657 20024 7763 5788 414 6102 19610 2664 2073 3279 2403 1435 4633 1775 5460 2858 3438 1677 591 1975 513 328 1761
is_linear=0
shrinkage=0.05


Tree=18
num_leaves=31
num_cat=0
split_feature=14 22 22 14 22 22 14 22 22 10 5 22 22 20 22 5 11 22 8 3 5 14 13 22 26 5 19 8 3 0
split_gain=2559.57 2673.61 2478.18 1218.65 588.02 277.026 174.197 161.726 106.814 103.956 94.8599 65.0613 64.4555 56.4369 54.8456 54.7474 51.1301 39.2551 24.4293 23.9075 21.3597 16.9979 16.1889 16.0124 15.1188 15.4732 10.9204 9.62457 6.79184 4.67727
threshold=2.5000000000000004 2.8333333333333335 2.3888888888888897 3.5000000000000004 3.3888888888888897 3.7222222222222228 1.5000000000000002 2.5000000000000004 2.7222222222222228 1.5000000000000002 2.5000000000000004 3.1666666666666674 1.166666666666667 1.0000000180025095e-35 2.9444444444444451 2.5000000000000004 3.5000000000000004 2.1666666666666674 2.5000000000000004 369.50000000000006 3.5000000000000004 3.5000000000000004 1.5000000000000002 2.1666666666666674 281.00000000000006 2.5000000000000004 233.41666666666671 1.5000000000000002 370.50000000000006 40.500000000000007
decision_type=2 2 2 2 2 2 2 2 2 2 2 2 2 2 2 2 2 2 2 2 2 2 2 2 2 2 2 2 2 2
left_child=1 6 10 5 11 7 9 -4 12 22 23 -5 -8 -6 24 -10 18 29 -16 -18 -7 -19 -1 -2 26 -26 -3 -11 -25 -12
right_child=2 14 3 4 13 20 8 -9 15 27 17 -13 -14 -15 16 -17 19 21 -20 -21 -22 -23 -24 28 25 -27 -28 -29 -30 -31
leaf_value=-4.7002167231278792e-06 -0.021089055297528216 0.020622314853187319 -0.030764212418030137 -0.020906016760958875 -0.0017512250474920417 0.029228308054328141 -0.038689046875000001 0 -0.003517401823796837 0.022622884836176832 -0.021334151008512811 -0.022006333432588288 0 0 0.024158132804464973 0.032661477109491209 0.023281016760958874 -0.024507170429306158 0.020906016760958875 0.020906016760958875 0.027100931937042983 -0.069380777770235172 0.033643441036128284 -0.020906016760958875 0.027514844663920259 0.022064244836358257 -0.0031104896288637143 0.02214693563609272 -0.020906016760958875 -0.020763925032127081
leaf_weight=50 1761 257 2273 2260 384 78 106 38160 339 44 327 1019 22125 1051 520 1603 581 1933 4818 116 869 74 56 1130 186 1246 39 334 547 330
leaf_count=50 1761 257 2273 2260 384 78 106 38160 339 44 327 1019 22125 1051 520 1603 581 1933 4818 116 869 74 56 1130 186 1246 39 334 547 330
internal_value=-0.000239907 0.0107943 -0.00709346 -0.00312947 -0.0272168 -0.000385452 0.00273756 -0.00101155 0.00214289 0.032438 -0.037037 -0.0388991 0.00116054 -0.000522648 0.0363841 0.0133883 0.038633 -0.029955 0.040296 0.0258967 0.0263464 -0.0264823 -0.0113208 -0.0425247 0.0285301 0.0306564 0.0182432 0.044709 -0.039028 -0.0405632
internal_weight=84616 32420 52196 46094 4714 41380 24657 40433 24173 484 6102 3279 22231 1435 7763 1942 6035 2664 5338 697 947 2007 106 3438 1728 1432 296 378 1677 657
internal_count=84616 32420 52196 46094 4714 41380 24657 40433 24173 484 6102 3279 22231 1435 7763 1942 6035 2664 5338 697 947 2007 106 3438 1728 1432 296 378 1677 657
is_linear=0
shrinkage=0.05


Tree=19
num_leaves=31
num_cat=0
split_feature=22 15 15 22 15 22 22 6 8 17 22 6 5 17 17 5 17 22 18 22 17 18 18 15 17 8 18 18 22 4
split_gain=1125.57 961.299 449.277 740.214 305.99 818.244 286.212 232.859 362.855 143.799 125.185 117.439 235.799 102.607 98.3984 85.0751 83.6124 67.4802 62.3379 58.5291 45.405 44.4536 36.3017 34.7085 33.3089 25.0031 21.6612 18.4293 12.9317 4.88705
threshold=2.5000000000000004 2.5000000000000004 3.5000000000000004 3.2777777777777781 2.5000000000000004 2.8333333333333335 2.3888888888888897 2.5000000000000004 2.5000000000000004 2.5833333333333335 3.7222222222222228 2.5000000000000004 2.5000000000000004 2.8333333333333335 2.8333333333333335 2.5000000000000004 3.1666666666666674 1.166666666666667 0.57735026918962384 3.3888888888888897 2.1666666666666674 0.70710678118655179 0.70710678118655068 3.5000000000000004 2.1666666666666674 2.5000000000000004 1.0000000180025095e-35 0.57735026918962384 3.0555555555555558 2.5000000000000004
decision_type=2 2 2 2 2 2 2 2 2 2 2 2 2 2 2 2 2 2 2 2 2 2 2 2 2 2 2 2 2 2
left_child=1 11 4 9 5 13 15 8 -6 28 -9 17 27 -2 -7 26 21 29 -11 -18 -8 -5 -19 -22 -17 -14 -3 -13 -4 -1
right_child=2 6 3 16 7 14 20 10 -10 18 -12 12 25 -15 -16 24 19 22 -20 -21 23 -23 -24 -25 -26 -27 -28 -29 -30 -31
leaf_value=-0.036754594531249997 0 -0.018664451502187419 0.025611109931831175 0.025373261457475989 0.0019344523437500002 0.019860715922910933 0.0092763962836105579 0 0 -0.019622661552760115 0.025745885340190833 0 -0.0018377297265625002 -0.0034683177702154338 0.002658485753205347 0.0065594376201359578 -0.019622661552760115 0 -0.019789615911376374 0 -0.031778403370486374 7.4428658442138675e-05 0.0011582280753993834 -0.067958842371196121 -0.020980572689900209 -7.85361175878907e-05 -0.019860715922910933 0 0.045481562500000003 -0.03641586015625
leaf_weight=81 5956 1225 73 567 4066 6264 105 30875 4244 332 785 479 876 730 807 104 289 16338 1896 974 2065 262 373 108 2303 82 1808 426 63 60
leaf_count=81 5956 1225 73 567 4066 6264 105 30875 4244 332 785 479 876 730 807 104 289 16338 1896 974 2065 262 373 108 2303 82 1808 426 63 60
internal_value=-0.000255271 -0.00881096 0.00363164 -0.0116248 0.00489698 0.0113288 -0.023659 0.00268326 0.0101324 -0.0307953 0.000728048 -0.00268768 -0.0146001 -0.00121149 0.0231863 -0.0298897 0.0100382 -0.00137076 -0.033842 0.00193983 -0.00877963 0.0223764 -0.00108013 -0.0103313 -0.0228708 -0.0318894 -0.0354599 0.00370166 0.0191176 -0.0358156
internal_weight=84616 26433 58183 4456 53727 13757 7718 39970 8310 2364 31660 18715 1863 6686 7071 5440 2092 16852 2228 1263 2278 829 16711 2173 2407 958 3033 905 136 141
internal_count=84616 26433 58183 4456 53727 13757 7718 39970 8310 2364 31660 18715 1863 6686 7071 5440 2092 16852 2228 1263 2278 829 16711 2173 2407 958 3033 905 136 141
is_linear=0
shrinkage=0.05


Tree=20
num_leaves=31
num_cat=0
split_feature=14 22 22 14 22 22 14 22 17 5 22 22 13 17 22 22 22 24 11 5 12 5 14 26 5 22 25 3 0 10
split_gain=2557.55 2580.47 2526.29 1333.82 512.127 267.69 239.91 173.542 150.415 94.8599 73.0189 56.5612 64.0975 54.5882 42.913 39.2551 39.037 40.0353 34.7459 34.1223 22.2661 21.3597 16.9979 16.2757 18.8701 16.0124 11.9544 6.79184 4.67727 1.62602
threshold=2.5000000000000004 2.8333333333333335 2.3888888888888897 3.5000000000000004 3.2777777777777781 3.7222222222222228 1.5000000000000002 2.5000000000000004 2.5833333333333335 2.5000000000000004 2.7222222222222228 2.9444444444444451 2.5000000000000004 3.1666666666666674 2.1666666666666674 2.1666666666666674 1.9444444444444446 1.5000000000000002 3.5000000000000004 3.5000000000000004 2.5000000000000004 3.5000000000000004 3.5000000000000004 281.00000000000006 2.5000000000000004 2.1666666666666674 215.50000000000003 370.50000000000006 40.500000000000007 2.5000000000000004
decision_type=2 2 2 2 2 2 2 2 2 2 2 2 2 2 2 2 2 2 2 2 2 2 2 2 2 2 2 2 2 2
left_child=1 6 9 5 19 7 16 -4 10 25 -8 23 20 -6 -10 28 17 -1 -14 -5 -13 -7 -17 26 -25 29 -3 -27 -11 -2
right_child=2 11 3 4 13 21 8 -9 14 15 -12 12 18 -15 -16 22 -18 -19 -20 -21 -22 -23 -24 24 -26 27 -28 -29 -30 -31
leaf_value=0.0038610897478129659 -0.019041566736506255 0.019621539180676321 -0.028341826680477689 -0.020776315469475892 -0.0039678842743388959 0.026498229578737931 0 0 0 -0.0199315440554052 0.031028403254016648 -0.0058173010812107946 0.018867680126765388 0 0 -0.022681646186731137 0.021039588854288083 -0.0053026959639804914 0.021123930126765385 -0.018871235127342113 0.027694662281248325 0.025369540024553883 -0.064862710247228408 0.025146066634578704 0.020961032594540342 -0.018867680126765388 -0.01405627253770907 -0.018867680126765388 -0.018676700146025717 -0.017818024749343669
leaf_weight=78 1717 254 2273 1721 726 78 18226 38160 1084 327 1384 43 5295 1162 3479 1933 349 57 647 1105 50 869 74 186 1246 1130 42 547 330 44
leaf_count=78 1717 254 2273 1721 726 78 18226 38160 1084 327 1384 43 5295 1162 3479 1933 349 57 647 1105 50 869 74 186 1246 1130 42 547 330 44
internal_value=4.66815e-05 0.0110765 -0.00680416 -0.00280188 -0.0280017 6.88739e-05 0.00316137 -0.000546583 0.00246349 -0.037037 0.000560938 0.0362167 0.0385004 -0.00783898 0.0106399 -0.029955 0.0380165 0.0151852 0.0391451 -0.041472 -0.00268817 0.0263464 -0.0264823 0.0282407 0.0304469 -0.0425247 0.0175676 -0.039028 -0.0405632 -0.0458546
internal_weight=84616 32420 52196 46094 4714 41380 24657 40433 24173 6102 19610 7763 6035 1888 4563 2664 484 135 5942 2826 93 947 2007 1728 1432 3438 296 1677 657 1761
internal_count=84616 32420 52196 46094 4714 41380 24657 40433 24173 6102 19610 7763 6035 1888 4563 2664 484 135 5942 2826 93 947 2007 1728 1432 3438 296 1677 657 1761
is_linear=0
shrinkage=0.05


Tree=21
num_leaves=31
num_cat=0
split_feature=14 8 7 14 23 15 7 15 15 7 20 15 14 15 20 9 6 20 20 15 20 23 12 15 8 12 20 15 20 8
split_gain=2558.56 1573.8 1190.03 1111.47 636.515 477.88 372.326 333.079 332.694 294.815 233.684 223.377 216.568 157.837 413.559 142.121 110.512 97.6749 81.2417 72.2397 49.1189 108.576 93.9621 43.4777 29.9882 20.0777 18.3454 17.4709 16.5805 13.3212
threshold=2.5000000000000004 2.5000000000000004 2.5000000000000004 3.5000000000000004 0.47047927592204924 3.5000000000000004 2.5000000000000004 2.5000000000000004 2.5000000000000004 3.5000000000000004 1.0000000180025095e-35 2.5000000000000004 1.5000000000000002 2.5000000000000004 1.0000000180025095e-35 2.5000000000000004 3.5000000000000004 1.5000000000000002 1.0000000180025095e-35 1.5000000000000002 1.5000000000000002 0.47047927592204924 2.5000000000000004 2.5000000000000004 1.5000000000000002 2.5000000000000004 1.0000000180025095e-35 2.5000000000000004 1.5000000000000002 3.5000000000000004
decision_type=2 2 2 2 2 2 2 2 2 2 2 2 2 2 2 2 2 2 2 2 2 2 2 2 2 2 2 2 2 2
left_child=1 11 4 5 15 8 23 17 -4 16 -9 12 24 14 -8 27 -5 -6 -11 -14 22 -22 -13 26 -1 -17 -3 -2 -15 -7
right_child=2 6 3 9 7 29 13 10 -10 18 -12 20 19 28 -16 25 -18 -19 -20 -21 21 -23 -24 -25 -26 -27 -28 -29 -30 -31
leaf_value=0.0016433968564525303 -0.020057713734656531 0 -0.0021512638715449305 -0.017927673370975006 -0.023571718246916604 0.00015523102625996881 -0.0083622293284442567 0.0024032773828125006 0 -0.0037694900606219509 -0.017927673370975006 -0.0026300588126127763 -0.036721567929687504 0.020075559991972042 0.017924296120427115 -0.017778040723709993 -0.017927673370975006 -0.021755920779521116 0 0 0.0020422724142983833 -0.00041718010658731624 0.026694935900146335 0.023795652870328102 0.01875421828439815 0 0 -0.017651611644436172 0.020075559991972042 0.024104784456248297
leaf_weight=134 785 164 1942 2277 796 576 348 675 34287 412 5217 208 111 1356 5562 76 544 297 1150 20734 313 564 846 176 301 344 1091 2520 512 298
leaf_count=134 785 164 1942 2277 796 576 348 675 34287 412 5217 208 111 1356 5562 76 544 297 1150 20734 313 564 846 176 301 344 1091 2520 512 298
internal_value=5.37723e-05 0.0110857 -0.00679841 -0.00296245 -0.0216573 -0.000149584 0.0285753 -0.0127559 -0.00103094 -0.0267739 -0.00805329 0.00414674 0.00266917 0.0328876 0.0288832 -0.038349 -0.0364233 -0.0381061 -0.00934699 0.00194051 0.0204298 0.0116876 0.027704 0.00513627 0.0375862 -0.0109524 0.00187251 -0.0418306 0.0455567 0.0363844
internal_weight=84616 32420 52196 41486 10710 37103 9209 6985 36229 4383 5892 23211 21280 7778 5910 3725 2821 1093 1562 20845 1931 877 1054 1431 435 420 1255 3305 1868 874
internal_count=84616 32420 52196 41486 10710 37103 9209 6985 36229 4383 5892 23211 21280 7778 5910 3725 2821 1093 1562 20845 1931 877 1054 1431 435 420 1255 3305 1868 874
is_linear=0
shrinkage=0.05


Tree=22
num_leaves=31
num_cat=0
split_feature=14 22 22 14 15 22 15 14 15 15 20 20 5 6 22 15 20 22 22 22 22 23 22 15 20 20 5 13 15 3
split_gain=2365.21 2633.63 2604.86 1383.46 540.666 517.654 409.463 244.06 215.88 116.91 457.7 109.876 94.8599 75.7915 69.9868 66.5408 138.594 65.0613 58.106 46.2995 39.037 45.5111 16.0124 11.7946 11.513 9.08979 7.96591 7.81117 3.1162 1.92438
threshold=2.5000000000000004 2.8333333333333335 2.3888888888888897 3.5000000000000004 2.5000000000000004 3.3888888888888897 3.5000000000000004 1.5000000000000002 2.5000000000000004 2.5000000000000004 1.0000000180025095e-35 1.0000000180025095e-35 2.5000000000000004 2.5000000000000004 2.6111111111111112 2.5000000000000004 1.0000000180025095e-35 3.1666666666666674 2.5000000000000004 2.9444444444444451 1.9444444444444446 0.63379593962199932 2.1666666666666674 2.5000000000000004 1.5000000000000002 1.5000000000000002 2.5000000000000004 3.5000000000000004 2.5000000000000004 30.500000000000004
decision_type=2 2 2 2 2 2 2 2 2 2 2 2 2 2 2 2 2 2 2 2 2 2 2 2 2 2 2 2 2 2
left_child=1 7 12 4 18 17 -6 20 13 10 27 -7 22 -9 -10 24 -17 -5 -4 -12 21 -1 28 -24 -14 29 -27 -3 -2 -11
right_child=2 9 3 5 6 11 -8 8 14 25 19 -13 15 -15 -16 16 -18 -19 -20 -21 -22 -23 23 -25 -26 26 -28 -29 -30 -31
leaf_value=0.003597380651974692 -0.019054828047923706 -0.0079441178620220428 -0.022822683136002813 -0.017039637420357068 0 -0.0025454581512431968 0.021630882160562082 0 0.001875991033173526 0.01907178199237344 0.018956800379475489 0 -0.021270424366946192 0 0.023762233968856423 0.0087638019915248187 -0.019229953301733157 -0.019001881303634189 -0.002043700677967684 0.017028081314405759 0.019049898497353775 -0.0065902683836624211 -0.019072674305239221 -0.017041715538205306 -0.020778443335305301 0.022076237006327548 0.01907178199237344 -0.0052508755588498912 -0.01598336583029655 0.01907178199237344
leaf_weight=81 433 255 366 2260 38053 384 924 18278 1270 60 1255 1051 439 3925 700 146 1927 1019 2037 4205 349 54 389 1288 152 34 479 73 1328 1402
leaf_count=81 433 255 366 2260 38053 384 924 18278 1270 60 1255 1051 439 3925 700 146 1927 1019 2037 4205 349 54 389 1288 152 34 479 73 1328 1402
internal_value=0.000250544 0.0108575 -0.00633765 -0.00227361 0.000650072 -0.0279381 0.00206917 0.00286126 0.00215737 0.0362553 0.032671 -0.00289199 -0.037037 0.000749899 0.0180203 -0.029955 -0.0257356 -0.0388991 -0.0223679 0.0361172 0.0380165 0.0151852 -0.0425247 -0.039028 -0.0447547 0.0467595 0.0410331 -0.0246951 -0.0458546 0.0487688
internal_weight=84616 32420 52196 46094 41380 4714 38977 24657 24173 7763 5788 1435 6102 22203 1970 2664 2073 3279 2403 5460 484 135 3438 1677 591 1975 513 328 1761 1462
internal_count=84616 32420 52196 46094 41380 4714 38977 24657 24173 7763 5788 1435 6102 22203 1970 2664 2073 3279 2403 5460 484 135 3438 1677 591 1975 513 328 1761 1462
is_linear=0
shrinkage=0.05


Tree=23
num_leaves=31
num_cat=0
split_feature=14 22 22 14 22 15 14 22 15 15 20 20 5 22 23 15 20 22 22 22 22 23 22 15 20 20 5 16 15 8
split_gain=2462.85 2636.94 2545.06 1322.58 533.807 518.977 244.172 242.488 213.349 116.624 453.123 95.7154 94.8599 71.1108 69.9446 66.5408 138.594 65.0613 58.106 46.2995 39.037 45.5111 16.0124 11.7946 11.513 9.08979 7.96591 7.50009 3.1162 2.90515
threshold=2.5000000000000004 2.8333333333333335 2.3888888888888897 3.5000000000000004 3.3888888888888897 2.5000000000000004 1.5000000000000002 3.7222222222222228 2.5000000000000004 2.5000000000000004 1.0000000180025095e-35 1.0000000180025095e-35 2.5000000000000004 2.6111111111111112 0.51352313834736507 2.5000000000000004 1.0000000180025095e-35 3.1666666666666674 2.5000000000000004 2.9444444444444451 1.9444444444444446 0.63379593962199932 2.1666666666666674 2.5000000000000004 1.5000000000000002 1.5000000000000002 2.5000000000000004 149.50000000000003 2.5000000000000004 1.5000000000000002
decision_type=2 2 2 2 2 2 2 2 2 2 2 2 2 2 2 2 2 2 2 2 2 2 2 2 2 2 2 2 2 2
left_child=1 6 12 5 17 18 20 -7 14 10 27 -6 22 -10 -8 24 -17 -5 -4 -12 21 -1 28 -24 -14 -11 -27 -3 -2 -22
right_child=2 9 3 4 11 7 8 -9 13 25 19 -13 15 -15 -16 16 -18 -19 -20 -21 29 -23 23 -25 -26 26 -28 -29 -30 -31
leaf_value=0.003417511619375957 -0.01810208664552752 -0.0075096730922727672 -0.021681548979202672 -0.016187655549339215 -0.0024181852436810369 0 0 0.023190114071953594 0.0017821914815148495 0.018118192892754764 0.018008960360501713 0 -0.020206903148598881 0.0225741222704136 0 0.0083256118919485776 -0.018268455636646499 -0.018051787238452476 -0.0019415156440692996 0.016176677248685468 0.018311900935721086 -0.0062607549644792988 -0.018119040589977261 -0.016189629761295038 -0.019739521168540036 0.020972425156011172 0.018118192892754764 -0.0075469119689209416 -0.015184197538781719 0.018097403572486088
leaf_weight=81 433 76 366 2260 384 38063 14681 914 1270 1462 1255 1051 439 700 7522 146 1927 1019 2037 4205 26 54 389 1288 152 34 479 252 1328 323
leaf_count=81 433 76 366 2260 384 38063 14681 914 1270 1462 1255 1051 439 700 7522 146 1927 1019 2037 4205 26 54 389 1288 152 34 479 252 1328 323
internal_value=3.0727e-05 0.0108544 -0.00669208 -0.00267497 -0.0277683 0.000183664 0.00285315 0.00157401 0.00214909 0.0362682 0.0326883 -0.00233449 -0.037037 0.0179188 0.000749899 -0.029955 -0.0257356 -0.0388991 -0.0223679 0.0361172 0.0380165 0.0151852 -0.0425247 -0.039028 -0.0447547 0.0467595 0.0410331 -0.0243902 -0.0458546 0.0468481
internal_weight=84616 32420 52196 46094 4714 41380 24657 38977 24173 7763 5788 1435 6102 1970 22203 2664 2073 3279 2403 5460 484 135 3438 1677 591 1975 513 328 1761 349
internal_count=84616 32420 52196 46094 4714 41380 24657 38977 24173 7763 5788 1435 6102 1970 22203 2664 2073 3279 2403 5460 484 135 3438 1677 591 1975 513 328 1761 349
is_linear=0
shrinkage=0.05


Tree=24
num_leaves=31
num_cat=0
split_feature=14 8 12 14 15 11 7 23 15 14 8 9 15 6 15 7 15 8 17 12 17 6 8 7 3 8 11 12 15 8
split_gain=2451.69 1430.15 1162.2 1177.31 701.411 429.106 361.798 273.526 217.851 215.113 165.129 144.387 114.711 109.853 100.064 98.1724 94.5857 85.826 65.9526 55.2161 37.8921 32.9787 29.9882 29.504 18.319 16.8279 15.4015 8.53984 5.30121 4.59193
threshold=2.5000000000000004 2.5000000000000004 2.5000000000000004 3.5000000000000004 2.5000000000000004 2.5000000000000004 3.5000000000000004 0.38714594258871599 2.5000000000000004 1.5000000000000002 3.5000000000000004 2.5000000000000004 2.5000000000000004 3.5000000000000004 2.5000000000000004 2.5000000000000004 2.5000000000000004 2.5000000000000004 2.5833333333333335 2.5000000000000004 3.1666666666666674 2.5000000000000004 1.5000000000000002 2.5000000000000004 30.500000000000004 1.5000000000000002 2.5000000000000004 2.5000000000000004 2.5000000000000004 2.5000000000000004
decision_type=2 2 2 2 2 2 2 2 2 2 2 2 2 2 2 2 2 2 2 2 2 2 2 2 2 2 2 2 2 2
left_child=1 8 7 4 15 16 13 26 9 22 -6 23 29 -5 -13 -4 19 -14 -11 -3 -8 25 -1 -7 -23 -10 28 -18 -2 -9
right_child=2 5 3 6 10 11 20 12 21 18 -12 14 17 -15 -16 -17 27 -19 -20 -21 -22 24 -24 -25 -26 -27 -28 -29 -30 -31
leaf_value=0.0012104824000623714 -0.017196982313251147 0 -0.02031926595879352 -0.015892461379469019 0 0 -0.0033328333878446417 -0.018901401219123079 -0.0020666643489226566 0 0 0.015367843386251197 -0.01585206676044168 -0.015369925053941441 0.017212283248117029 -0.0018444398618658346 0.023082302730976827 -9.6722617187500014e-05 0 0.014872583512328376 0 -0.0081063107273366304 0.015959142266686249 0.017742843386251195 0.021445416156892924 0.0031571592606886145 0 0.019012093142060246 -0.014894110615295381 -0.020609646818709089
leaf_weight=134 492 539 1047 2614 37318 165 606 380 35 17598 2609 4588 1435 591 1576 1756 46 733 3247 1425 944 39 301 573 621 1236 44 297 1518 109
leaf_count=134 492 539 1047 2614 37318 165 606 380 35 17598 2609 4588 1435 591 1576 1756 46 733 3247 1425 944 39 301 573 621 1236 44 297 1518 109
internal_value=6.14541e-05 0.0108606 -0.0066461 -0.00429609 -0.00166979 0.0275328 -0.027897 -0.0303333 0.00424583 0.00278665 2.75503e-05 0.0337728 -0.0197403 -0.0374883 0.0362751 -0.0258473 0.00886433 -0.0148063 0.00206045 0.0046334 -0.00806452 0.0203263 0.0375862 0.0128726 0.0293939 0.0156176 -0.044036 0.0330904 -0.0446766 -0.0416155
internal_weight=84616 32420 52196 47485 42730 9209 4755 4711 23211 21280 39927 6902 2657 3205 6164 2803 2307 2168 20845 1964 1550 1931 435 738 660 1271 2054 343 2010 489
internal_count=84616 32420 52196 47485 42730 9209 4755 4711 23211 21280 39927 6902 2657 3205 6164 2803 2307 2168 20845 1964 1550 1931 435 738 660 1271 2054 343 2010 489
is_linear=0
shrinkage=0.05


Tree=25
num_leaves=31
num_cat=0
split_feature=14 22 22 14 22 22 14 22 17 5 22 23 22 23 14 22 22 23 5 13 11 22 13 5 14 22 16 3 0 8
split_gain=2364.41 2692.17 2557.93 1307.17 556.424 263.937 249.211 178.469 152.963 94.8599 82.5243 68.4978 65.0613 58.5385 40.7636 39.2551 39.037 45.5111 35.0884 32.0238 26.2338 25.628 25.044 21.3597 16.9979 16.0124 15.8812 6.79184 4.67727 2.90515
threshold=2.5000000000000004 2.8333333333333335 2.3888888888888897 3.5000000000000004 3.3888888888888897 3.7222222222222228 1.5000000000000002 2.5000000000000004 2.5833333333333335 2.5000000000000004 2.7222222222222228 0.47047927592204924 3.1666666666666674 0.51352313834736507 4.5000000000000009 2.1666666666666674 1.9444444444444446 0.63379593962199932 3.5000000000000004 2.5000000000000004 3.5000000000000004 2.9444444444444451 3.5000000000000004 3.5000000000000004 3.5000000000000004 2.1666666666666674 305.50000000000006 370.50000000000006 40.500000000000007 1.5000000000000002
decision_type=2 2 2 2 2 2 2 2 2 2 2 2 2 2 2 2 2 2 2 2 2 2 2 2 2 2 2 2 2 2
left_child=1 6 9 5 12 7 16 -4 10 25 -8 -10 -5 20 -6 28 17 -1 22 -20 21 -3 -15 -7 -17 -2 -22 -27 -11 -18
right_child=2 13 3 4 14 23 8 -9 11 15 -12 -13 -14 18 -16 24 29 -19 19 -21 26 -23 -24 -25 -26 27 -28 -29 -30 -31
leaf_value=0.0031861119184040409 -0.01490382411824045 0.014128954336711958 -0.023604939520428737 -0.014583649702898806 0 0.021727029065362842 0 0 0.0011582280753993834 -0.015334265077144277 0.027693626115981897 0 -0.016389049341763596 0.016974451216938635 -0.040725312499999999 -0.017956331158166923 0.017335781768931913 -0.0063769578329240491 0.00081010112720827302 0.016855701216938634 0.016742888716938638 0.014599451216938637 0.016351669085711174 0.022030608368355915 -0.058053647550425795 -0.015380148273230289 0.014367888716938637 -0.015380148273230289 -0.014240658578818871 0.016394576280527467
leaf_weight=81 1761 839 2273 2260 1355 78 18226 38160 1738 327 1384 2825 1019 631 80 1933 26 54 63 1380 204 3942 635 869 74 1130 69 547 330 323
leaf_count=81 1761 839 2273 2260 1355 78 18226 38160 1738 327 1384 2825 1019 631 80 1933 26 54 63 1380 204 3942 635 869 74 1130 69 547 330 323
internal_value=-2.83634e-05 0.0105768 -0.00661545 -0.00258819 -0.027535 0.000253746 0.00249219 -0.000357381 0.00178091 -0.037037 -0.000137685 0.0100263 -0.0388991 0.0362553 -0.00156794 -0.029955 0.0380165 0.0151852 0.0303248 0.0356549 0.0394341 0.0402949 0.0242496 0.0263464 -0.0264823 -0.0425247 0.024359 -0.039028 -0.0405632 0.0468481
internal_weight=84616 32420 52196 46094 4714 41380 24657 40433 24173 6102 19610 4563 3279 7763 1435 2664 484 135 2709 1443 5054 4781 1266 947 2007 3438 273 1677 657 349
internal_count=84616 32420 52196 46094 4714 41380 24657 40433 24173 6102 19610 4563 3279 7763 1435 2664 484 135 2709 1443 5054 4781 1266 947 2007 3438 273 1677 657 349
is_linear=0
shrinkage=0.05


Tree=26
num_leaves=31
num_cat=0
split_feature=14 22 22 14 22 22 14 22 22 5 22 22 23 5 14 22 22 23 5 13 11 22 13 5 14 22 16 3 0 8
split_gain=2173.3 2837.43 2557.93 1307.17 556.424 263.937 262.353 178.469 133.047 94.8599 65.0613 59.8378 59.4912 54.7474 40.7636 39.2551 39.037 45.5111 35.148 31.8966 26.2338 25.628 25.6115 21.3597 16.9979 16.0124 15.8812 6.79184 4.67727 2.90515
threshold=2.5000000000000004 2.8333333333333335 2.3888888888888897 3.5000000000000004 3.3888888888888897 3.7222222222222228 1.5000000000000002 2.5000000000000004 2.7222222222222228 2.5000000000000004 3.1666666666666674 1.166666666666667 0.51352313834736507 2.5000000000000004 4.5000000000000009 2.1666666666666674 1.9444444444444446 0.63379593962199932 3.5000000000000004 2.5000000000000004 3.5000000000000004 2.9444444444444451 3.5000000000000004 3.5000000000000004 3.5000000000000004 2.1666666666666674 305.50000000000006 370.50000000000006 40.500000000000007 1.5000000000000002
decision_type=2 2 2 2 2 2 2 2 2 2 2 2 2 2 2 2 2 2 2 2 2 2 2 2 2 2 2 2 2 2
left_child=1 6 9 5 10 7 16 -4 11 25 -5 -8 20 -10 -6 28 17 -1 22 -20 21 -3 -14 -7 -17 -2 -22 -27 -11 -18
right_child=2 12 3 4 14 23 8 -9 13 15 -12 -13 18 -15 -16 24 29 -19 19 -21 26 -23 -24 -25 -26 27 -28 -29 -30 -31
leaf_value=0.0030268063224838391 -0.014158632912328429 0.013422506619876363 -0.0224246925444073 -0.013854467217753864 0 0.020640677612094701 -0.034916864804687496 0 -0.0062776332011069223 -0.014567551823287062 -0.015569596874675419 0 0.016125728656091704 0.0263089448101828 -0.038689046875000001 -0.017058514600258572 0.016468992680485319 -0.0060581099412778472 0.00076959607084785937 0.016012916156091708 0.015905744281091705 0.013869478656091706 0.015534085631425616 0.020929077949938119 -0.055150965172904513 -0.014611140859568772 0.013649494281091707 -0.014611140859568772 -0.01352862564987793 0.015574847466501097
leaf_weight=81 1761 839 2273 2260 1355 78 106 38160 339 327 1019 22125 631 1603 80 1933 26 54 63 1380 204 3942 635 869 74 1130 69 547 330 323
leaf_count=81 1761 839 2273 2260 1355 78 106 38160 339 327 1019 22125 631 1603 80 1933 26 54 63 1380 204 3942 635 869 74 1130 69 547 330 323
internal_value=-0.00030018 0.00986737 -0.00661545 -0.00258819 -0.027535 0.000253746 0.00156751 -0.000357381 0.000837711 -0.037037 -0.0388991 -0.000258648 0.0362296 0.0133883 -0.00156794 -0.029955 0.0380165 0.0151852 0.030251 0.0355856 0.0394341 0.0402949 0.0241706 0.0263464 -0.0264823 -0.0425247 0.024359 -0.039028 -0.0405632 0.0468481
internal_weight=84616 32420 52196 46094 4714 41380 24657 40433 24173 6102 3279 22231 7763 1942 1435 2664 484 135 2709 1443 5054 4781 1266 947 2007 3438 273 1677 657 349
internal_count=84616 32420 52196 46094 4714 41380 24657 40433 24173 6102 3279 22231 7763 1942 1435 2664 484 135 2709 1443 5054 4781 1266 947 2007 3438 273 1677 657 349
is_linear=0
shrinkage=0.05


Tree=27
num_leaves=31
num_cat=0
split_feature=14 9 13 14 15 11 7 14 8 8 15 20 11 13 6 7 15 23 20 13 15 20 15 23 10 15 14 13 20 15
split_gain=2172.49 1504.22 1188.94 1178.83 749.516 548.594 363.848 223.624 222.952 217.287 178.831 173.425 171.773 129.336 107.197 101.443 100.172 79.8589 55.5021 52.1574 51.9458 32.9069 32.0276 31.1129 31.7673 29.3702 30.4327 29.1406 10.8815 4.55176
threshold=2.5000000000000004 2.5000000000000004 2.5000000000000004 3.5000000000000004 2.5000000000000004 2.5000000000000004 3.5000000000000004 1.5000000000000002 2.5000000000000004 2.5000000000000004 2.5000000000000004 1.0000000180025095e-35 2.5000000000000004 2.5000000000000004 3.5000000000000004 2.5000000000000004 2.5000000000000004 0.38714594258871599 1.0000000180025095e-35 2.5000000000000004 2.5000000000000004 1.5000000000000002 2.5000000000000004 0.63379593962199932 1.5000000000000002 2.5000000000000004 3.5000000000000004 3.5000000000000004 2.5000000000000004 2.5000000000000004
decision_type=2 2 2 2 2 2 2 2 2 2 2 2 2 2 2 2 2 2 2 2 2 2 2 2 2 2 2 2 2 2
left_child=1 7 9 4 15 16 14 23 20 17 11 -9 -6 -10 -5 -4 19 29 -8 -3 -7 -18 -19 -1 -25 28 -27 -12 -11 -2
right_child=2 5 3 6 12 8 18 10 13 25 27 -13 -14 -15 -16 -17 21 22 -20 -21 -22 -23 -24 24 -26 26 -28 -29 -30 -31
leaf_value=0.013374104862484887 -0.014884010346060145 0 -0.016890030505964212 -0.013630580256874081 0 0.016174848244541674 -0.0031661917184524096 0 0.019039529279817599 -0.033582227089671506 0.002941389893884214 0 0 0.013176004723287123 -0.013454932804415443 -0.001752217868772543 0.017302920259582407 -0.015389079833709613 0 0 0.018027688699437289 0.014455668695203788 -0.013863989454188791 -0.0039158945791624242 0.016773267677523959 0 -0.015640754763992511 0.018027688699437289 -0.014434476745189773 -0.012654314239509046
leaf_weight=315 471 758 1147 2641 9484 1555 409 2969 277 80 1374 15831 30903 5887 593 1765 281 281 1140 2337 357 171 1054 44 75 691 54 189 39 1444
leaf_count=315 471 758 1147 2641 9484 1555 409 2969 277 80 1374 15831 30903 5887 593 1765 281 281 1140 2337 357 171 1054 44 75 691 54 189 39 1444
internal_value=-0.000301361 0.00986428 -0.00661545 -0.00440809 -0.00180605 0.0242708 -0.0279636 0.00181276 0.0314698 -0.0324137 0.00105584 -0.000295213 -3.96167e-05 0.0360967 -0.0375077 -0.0263049 0.0078799 -0.0383385 -0.00803744 0.00466882 0.0165533 0.0298673 -0.0289513 0.0373272 0.0155462 -0.0101273 -0.00644295 0.0173065 -0.0331933 -0.0448825
internal_weight=84616 32420 52196 48082 43299 11623 4783 20797 8076 4114 20363 18800 40387 6164 3234 2912 3547 3250 1549 3095 1912 452 1335 434 119 864 745 1563 119 1915
internal_count=84616 32420 52196 48082 43299 11623 4783 20797 8076 4114 20363 18800 40387 6164 3234 2912 3547 3250 1549 3095 1912 452 1335 434 119 864 745 1563 119 1915
is_linear=0
shrinkage=0.05


Tree=28
num_leaves=31
num_cat=0
split_feature=14 22 22 14 22 15 14 22 15 20 15 20 5 22 20 15 20 22 22 22 22 24 22 15 20 20 5 16 15 8
split_gain=2091.03 2902.42 2558.25 1305.18 558.503 482.64 268.254 242.097 228.76 174.581 117.772 471.572 94.8599 84.6796 76.3052 66.5408 138.594 65.5259 65.0613 46.2995 39.037 40.0353 16.0124 11.7946 11.513 9.08979 7.96591 7.60535 3.1162 2.90515
threshold=2.5000000000000004 2.8333333333333335 2.3888888888888897 3.5000000000000004 3.3888888888888897 2.5000000000000004 1.5000000000000002 3.7222222222222228 2.5000000000000004 1.0000000180025095e-35 2.5000000000000004 1.0000000180025095e-35 2.5000000000000004 2.6111111111111112 1.0000000180025095e-35 2.5000000000000004 1.0000000180025095e-35 2.6111111111111112 3.1666666666666674 2.9444444444444451 1.9444444444444446 1.5000000000000002 2.1666666666666674 2.5000000000000004 1.5000000000000002 1.5000000000000002 2.5000000000000004 149.50000000000003 2.5000000000000004 1.5000000000000002
decision_type=2 2 2 2 2 2 2 2 2 2 2 2 2 2 2 2 2 2 2 2 2 2 2 2 2 2 2 2 2 2
left_child=1 6 12 5 18 17 20 -7 9 -8 11 27 22 -10 -6 24 -17 -4 -5 -13 21 -1 28 -24 -14 -12 -27 -3 -2 -22
right_child=2 10 3 4 14 7 8 -9 13 -11 25 19 15 -15 -16 16 -18 -19 -20 -21 29 -23 23 -25 -26 26 -28 -29 -30 -31
leaf_value=0.0021952455288604027 -0.014139809828757139 -0.0099848283367875625 -0.018303623510706458 -0.012480214844022465 -0.0019723247261821323 0 0 0.019882624052441213 0.0013302430459404962 0 0.014269422355895301 0.014317147929361574 -0.015737194639840107 0.019662542686458173 0 0.009756796202459922 -0.014883150841293486 -0.001664606975333916 -0.014111594510150727 0.012517204487122763 0.015131906802765141 -0.0045226142103878195 -0.013853059280600561 -0.013840887573894158 -0.015249755002743757 0.017026816451810988 0.014269422355895301 -0.010020205269603328 -0.012018849342663363 0.014127399850051799
leaf_weight=78 433 76 674 2260 384 38063 3364 914 1270 18839 1462 1255 439 700 1051 146 1927 1729 1019 4205 26 57 389 1288 152 34 479 252 1328 323
leaf_count=78 433 76 674 2260 384 38063 3364 914 1270 18839 1462 1255 439 700 1051 146 1927 1729 1019 4205 26 57 389 1288 152 34 479 252 1328 323
internal_value=-0.000418951 0.00955429 -0.00661353 -0.00258602 -0.0275138 0.000253746 0.00115991 0.00159453 0.000421958 -0.00102689 0.0362167 0.0326192 -0.037037 0.0167513 -0.00149826 -0.029955 -0.0257356 -0.021494 -0.0388991 0.0361172 0.0380165 0.0151852 -0.0425247 -0.039028 -0.0447547 0.0467595 0.0410331 -0.0256098 -0.0458546 0.0468481
internal_weight=84616 32420 52196 46094 4714 41380 24657 38977 24173 22203 7763 5788 6102 1970 1435 2664 2073 2403 3279 5460 484 135 3438 1677 591 1975 513 328 1761 349
internal_count=84616 32420 52196 46094 4714 41380 24657 38977 24173 22203 7763 5788 6102 1970 1435 2664 2073 2403 3279 5460 484 135 3438 1677 591 1975 513 328 1761 349
is_linear=0
shrinkage=0.05


Tree=29
num_leaves=31
num_cat=0
split_feature=14 22 22 14 22 15 14 22 15 15 5 22 18 15 22 22 22 14 22 10 23 22 12 22 15 5 0 8 15 8
split_gain=2082.12 2902.42 2553.03 1277.41 588.02 482.64 289.72 242.097 219.707 117.772 97.1397 89.0443 71.7492 67.8978 66.4014 65.5259 65.0613 43.2578 40.6166 37.4266 31.8411 27.2984 29.0879 16.0124 11.7946 3.40804 4.37 3.47948 3.1162 2.90515
threshold=2.5000000000000004 2.8333333333333335 2.3888888888888897 3.5000000000000004 3.3888888888888897 2.5000000000000004 1.5000000000000002 3.7222222222222228 2.5000000000000004 2.5000000000000004 2.5000000000000004 2.6111111111111112 0.57735026918962384 2.5000000000000004 2.7222222222222228 2.6111111111111112 3.1666666666666674 4.5000000000000009 2.1666666666666674 3.5000000000000004 0.71679496922166341 1.9444444444444446 2.5000000000000004 2.1666666666666674 2.5000000000000004 2.5000000000000004 52.500000000000007 2.5000000000000004 2.5000000000000004 1.5000000000000002
decision_type=2 2 2 2 2 2 2 2 2 2 2 2 2 2 2 2 2 2 2 2 2 2 2 2 2 2 2 2 2 2
left_child=1 6 10 5 16 15 21 -7 14 12 23 -10 19 -12 -8 -4 -5 -6 -15 -3 -14 22 -1 28 -25 26 -11 -27 -2 -23
right_child=2 9 3 4 17 7 8 -9 11 25 13 -13 20 18 -16 -17 -18 -19 -20 -21 -22 29 -24 24 -26 27 -28 -29 -30 -31
leaf_value=0.00083794993831362628 -0.013432819337319281 0.011891344262766624 -0.017388442335171134 -0.011856204101821338 0 0 0 0.018888492849819152 0.0012637308936434715 0.01664821681498933 -0.014944431918614021 0.018679415552135266 0.011891344262766624 -0.011475321113343913 0.0251370105633698 -0.00158137662656722 -0.01340601478464319 -0.036754594531249997 -0.015011563895830233 0.011891344262766624 0.015907051509975231 0.014375311462626886 -0.0079515119367318931 -0.013160406316570533 -0.013148843195199451 0.015098261225879423 0.016175475629220438 0.013555951238100534 -0.011417906875530194 0.013421029857549206
leaf_weight=107 433 1551 674 2260 1355 38063 20619 914 1270 51 591 700 3311 489 1584 1729 1019 80 1584 372 554 26 28 389 1288 255 33 1636 1328 323
leaf_count=107 433 1551 674 2260 1355 38063 20619 914 1270 51 591 700 3311 489 1584 1729 1019 80 1584 372 554 26 28 389 1288 255 33 1636 1328 323
internal_value=-0.000397679 0.00955429 -0.00657905 -0.00255565 -0.0272168 0.000253746 0.00115991 0.00159453 0.000393 0.0362167 -0.0369715 0.0163959 0.0326192 -0.0298048 -0.00102689 -0.021494 -0.0388991 -0.000522648 -0.0255427 0.024727 0.0365459 0.0394628 0.0203704 -0.0425247 -0.039028 0.0467595 0.0369048 0.0471973 -0.0458546 0.0468481
internal_weight=84616 32420 52196 46094 4714 41380 24657 38977 24173 7763 6102 1970 5788 2664 22203 2403 3279 1435 2073 1923 3865 484 135 3438 1677 1975 84 1891 1761 349
internal_count=84616 32420 52196 46094 4714 41380 24657 38977 24173 7763 6102 1970 5788 2664 22203 2403 3279 1435 2073 1923 3865 484 135 3438 1677 1975 84 1891 1761 349
is_linear=0
shrinkage=0.05


Tree=30
num_leaves=31
num_cat=0
split_feature=14 22 22 14 22 15 14 22 15 15 5 22 17 18 17 15 22 22 14 22 22 23 12 22 15 5 0 8 15 8
split_gain=2067.62 2913.85 2553.67 1277.86 588.02 479.166 266.254 242.097 208.336 117.772 97.1397 94.8172 79.6768 71.7492 102.614 67.8978 66.3533 65.0613 43.2578 40.8849 40.6166 31.8411 21.9857 16.0124 11.7946 3.40804 4.37 3.47948 3.1162 2.90515
threshold=2.5000000000000004 2.8333333333333335 2.3888888888888897 3.5000000000000004 3.3888888888888897 2.5000000000000004 1.5000000000000002 3.7222222222222228 2.5000000000000004 2.5000000000000004 2.5000000000000004 2.6111111111111112 2.8333333333333335 0.57735026918962384 2.8333333333333335 2.5000000000000004 2.6111111111111112 3.1666666666666674 4.5000000000000009 1.9444444444444446 2.1666666666666674 0.71679496922166341 2.5000000000000004 2.1666666666666674 2.5000000000000004 2.5000000000000004 52.500000000000007 2.5000000000000004 2.5000000000000004 1.5000000000000002
decision_type=2 2 2 2 2 2 2 2 2 2 2 2 2 2 2 2 2 2 2 2 2 2 2 2 2 2 2 2 2 2
left_child=1 6 10 5 17 16 19 -7 12 13 23 -10 -8 14 -3 -12 -4 -5 -6 22 -17 -15 -1 28 -25 26 -11 -27 -2 -21
right_child=2 9 3 4 18 7 8 -9 11 25 15 -13 -14 21 -16 20 -18 -19 -20 29 -22 -23 -24 24 -26 27 -28 -29 -30 -31
leaf_value=0.000796052441397945 -0.012761178370453314 0.011296777049628294 -0.016519020218412579 -0.011263393896730273 0 0 0 0.01794406820732819 0.0012005443489612978 0.015815805974239868 -0.014197210322683319 0.017745444774528503 -5.7911403769969176e-05 0.011296777049628294 -0.0067532927248718112 -0.010901555057676716 -0.001502307795238859 -0.01273571404541103 -0.034916864804687496 0.013656545889495539 -0.01426098570103872 0.015111698934476473 -0.0075539363398953001 -0.012502386000742006 -0.012491401035439477 0.014343348164585452 0.015366701847759418 0.012878153676195509 -0.010847011531753681 0.012749978364671745
leaf_weight=107 433 1818 674 2260 1355 38063 20508 914 1270 51 591 700 1695 3311 105 489 1729 1019 80 26 1584 554 28 389 1288 255 33 1636 1328 323
leaf_count=107 433 1818 674 2260 1355 38063 20508 914 1270 51 591 700 1695 3311 105 489 1729 1019 80 26 1584 554 28 389 1288 255 33 1636 1328 323
internal_value=-0.000415406 0.00950185 -0.00657522 -0.00255131 -0.0272168 0.000258579 0.00109097 0.00159453 0.000355769 0.0362167 -0.0369715 0.0159391 -0.00102689 0.0326192 0.024727 -0.0298048 -0.0214107 -0.0388991 -0.000522648 0.0378099 -0.0255427 0.0365459 0.0144444 -0.0425247 -0.039028 0.0467595 0.0369048 0.0471973 -0.0458546 0.0468481
internal_weight=84616 32420 52196 46094 4714 41380 24657 38977 24173 7763 6102 1970 22203 5788 1923 2664 2403 3279 1435 484 2073 3865 135 3438 1677 1975 84 1891 1761 349
internal_count=84616 32420 52196 46094 4714 41380 24657 38977 24173 7763 6102 1970 22203 5788 1923 2664 2403 3279 1435 484 2073 3865 135 3438 1677 1975 84 1891 1761 349
is_linear=0
shrinkage=0.05


Tree=31
num_leaves=31
num_cat=0
split_feature=14 8 5 14 5 15 11 13 5 13 15 8 14 10 8 14 10 20 23 13 20 9 6 15 11 15 23 15 15 17
split_gain=2165.56 1430.63 1209.3 1083.07 641.746 625.222 448.92 351.881 277.913 226.336 191.8 190.761 169.141 137.092 95.3427 92.2431 82.3986 81.0774 124.629 120.271 80.1664 70.9392 64.8802 61.5367 51.1726 43.4708 42.1016 33.7568 15.5283 14.2192
threshold=2.5000000000000004 2.5000000000000004 2.5000000000000004 3.5000000000000004 2.5000000000000004 2.5000000000000004 2.5000000000000004 2.5000000000000004 3.5000000000000004 2.5000000000000004 2.5000000000000004 2.5000000000000004 1.5000000000000002 2.5000000000000004 3.5000000000000004 3.5000000000000004 1.5000000000000002 1.5000000000000002 0.47047927592204924 2.5000000000000004 1.0000000180025095e-35 2.5000000000000004 2.5000000000000004 2.5000000000000004 3.5000000000000004 2.5000000000000004 0.47047927592204924 2.5000000000000004 2.5000000000000004 2.8333333333333335
decision_type=2 2 2 2 2 2 2 2 2 2 2 2 2 2 2 2 2 2 2 2 2 2 2 2 2 2 2 2 2 2
left_child=1 10 6 5 22 21 11 25 24 -7 12 26 16 -9 -10 23 -1 19 -19 -12 -14 -4 29 -8 -5 -6 -2 -13 -24 -3
right_child=2 4 3 8 7 9 15 13 14 -11 17 27 20 -15 -16 -17 -18 18 -20 -21 -22 -23 28 -25 -26 -27 -28 -29 -30 -31
leaf_value=-2.0855270537984308e-05 -0.011103797167239188 -0.00074362917561641886 -0.014464117003577488 -0.012133837532039782 -0.00089621480602135577 -0.010165355833764978 -0.027524406410436977 0.012014261617385736 -0.01070022420189376 0 -0.0034235477577785147 -0.013745927007984104 0 0.010731938197146879 0 -0.013130448715956679 0.012003537187463598 0.0012046848919231711 -0.0010738835991482738 0.019069778758589902 0 -0.001427192405476916 0.00074530525314073627 0 -0.013414438286979725 0.02126397501356718 -0.013349219806658142 -0.01205224917478704 0.015025015675527876 0.00042100703661071136
leaf_weight=103 2445 739 1270 1751 526 1630 208 1389 1838 36888 169 90 3184 5785 857 161 332 313 564 885 17661 1358 516 1763 137 69 1301 499 95 90
leaf_count=103 2445 739 1270 1751 526 1630 208 1389 1838 36888 169 90 3184 5785 857 161 332 313 564 885 17661 1358 516 1763 137 69 1301 499 95 90
internal_value=-0.000263544 0.00988587 -0.00656755 -0.00370553 0.026561 -0.00113741 -0.0268053 0.0322435 -0.0267619 0.000472506 0.00327 -0.0360438 0.00190085 0.0353081 -0.0164564 -0.00802064 0.0327586 0.0183584 0.00712657 0.027704 0.0012569 -0.0247336 -0.00409722 -0.0050482 -0.0414725 -0.00470588 -0.0402029 -0.00959253 0.00826514 -0.0132087
internal_weight=84616 32420 52196 45729 9209 41146 6467 7769 4583 38518 23211 4335 21280 7174 2695 2132 435 1931 877 1054 20845 2628 1440 1971 1888 595 3746 589 611 829
internal_count=84616 32420 52196 45729 9209 41146 6467 7769 4583 38518 23211 4335 21280 7174 2695 2132 435 1931 877 1054 20845 2628 1440 1971 1888 595 3746 589 611 829
is_linear=0
shrinkage=0.05


Tree=32
num_leaves=31
num_cat=0
split_feature=14 22 22 14 22 15 22 14 15 15 5 22 22 6 18 17 15 22 22 14 22 23 22 22 15 5 21 8 15 8
split_gain=2168.43 2797.94 2567.79 1240.91 641.505 484.471 239.684 200.715 187.43 117.772 99.4465 94.8172 86.8157 79.8611 71.7492 102.614 69.2686 66.3533 65.0613 47.4909 41.8705 31.8411 16.0124 13.0555 11.7946 3.40804 4.329 3.47948 3.1162 2.90515
threshold=2.5000000000000004 2.8333333333333335 2.3888888888888897 3.5000000000000004 3.3888888888888897 2.5000000000000004 3.7222222222222228 1.5000000000000002 2.5000000000000004 2.5000000000000004 2.5000000000000004 2.6111111111111112 1.9444444444444446 2.5000000000000004 0.57735026918962384 2.8333333333333335 2.5000000000000004 2.6111111111111112 3.1666666666666674 4.5000000000000009 2.1666666666666674 0.71679496922166341 2.1666666666666674 1.166666666666667 2.5000000000000004 2.5000000000000004 3.5000000000000004 2.5000000000000004 2.5000000000000004 1.5000000000000002
decision_type=2 2 2 2 2 2 2 2 2 2 2 2 2 2 2 2 2 2 2 2 2 2 2 2 2 2 2 2 2 2
left_child=1 7 10 5 18 17 -7 12 13 14 22 -10 23 -9 15 -3 -12 -4 -5 -6 -18 -16 28 -1 -24 26 -11 -27 -2 -14
right_child=2 9 3 4 19 6 -8 8 11 25 16 -13 29 -15 21 -17 20 -19 -20 -21 -22 -23 24 -25 -26 27 -28 -29 -30 -31
leaf_value=-2.5906257011085461e-05 -0.011567929593568688 0.010195341287289534 -0.0150586693934898 -0.010178493727283322 0 0 0.01704686479696178 0 0.0010802828869170744 0.01472572013980576 -0.012764143956370278 0.015950830511435449 0.012373541735647585 0 0.010195341287289534 -0.0064156280886282198 -0.0098482095131046284 -0.0013558327852030703 -0.011492236466538486 -0.033171021564453125 -0.013039668624298534 0.01414288545719287 -0.011322076842342944 0.026621172732278955 -0.011311163176281053 0.01267269181842668 0.013847115971595055 0.01169764908252839 -0.0096371999648330875 0.011512302587064977
leaf_weight=37 433 1818 674 2260 1355 38063 914 18278 1270 44 591 700 26 3925 3311 105 489 1729 1019 80 1584 554 389 98 1288 255 40 1636 1328 323
leaf_count=37 433 1818 674 2260 1355 38063 914 18278 1270 44 591 700 26 3925 3311 105 489 1729 1019 80 1584 554 389 98 1288 255 40 1636 1328 323
internal_value=-0.00011759 0.0100386 -0.00642578 -0.00239077 -0.0266971 0.000378202 0.00172153 0.00179665 0.00115832 0.0362167 -0.0369059 0.0159391 0.0336777 -0.000153132 0.0326192 0.024727 -0.0296547 -0.0214107 -0.0388991 0.00118467 -0.0253497 0.0365459 -0.0425247 -0.00037037 -0.039028 0.0467595 0.0369048 0.0471973 -0.0458546 0.0468481
internal_weight=84616 32420 52196 46094 4714 41380 38977 24657 24173 7763 6102 1970 484 22203 5788 1923 2664 2403 3279 1435 2073 3865 3438 135 1677 1975 84 1891 1761 349
internal_count=84616 32420 52196 46094 4714 41380 38977 24657 24173 7763 6102 1970 484 22203 5788 1923 2664 2403 3279 1435 2073 3865 3438 135 1677 1975 84 1891 1761 349
is_linear=0
shrinkage=0.05


Tree=33
num_leaves=31
num_cat=0
split_feature=14 22 22 14 22 15 22 14 15 15 20 22 5 22 6 22 15 20 20 22 22 13 22 15 20 20 5 16 15 3
split_gain=2160.03 2801.9 2570.05 1242.46 641.505 472.346 239.684 185.704 187.43 117.772 471.572 103.928 99.4465 94.8172 79.8611 69.2901 69.2686 136.326 68.7957 65.0613 46.2995 20.2709 16.0124 11.7946 11.513 9.08979 7.96591 7.60535 3.1162 1.92438
threshold=2.5000000000000004 2.8333333333333335 2.3888888888888897 3.5000000000000004 3.3888888888888897 2.5000000000000004 3.7222222222222228 1.5000000000000002 2.5000000000000004 2.5000000000000004 1.0000000180025095e-35 1.9444444444444446 2.5000000000000004 2.6111111111111112 2.5000000000000004 2.6111111111111112 2.5000000000000004 1.0000000180025095e-35 1.0000000180025095e-35 3.1666666666666674 2.9444444444444451 1.5000000000000002 2.1666666666666674 2.5000000000000004 1.5000000000000002 1.5000000000000002 2.5000000000000004 149.50000000000003 2.5000000000000004 30.500000000000004
decision_type=2 2 2 2 2 2 2 2 2 2 2 2 2 2 2 2 2 2 2 2 2 2 2 2 2 2 2 2 2 2
left_child=1 7 12 5 19 15 -7 11 14 10 27 21 22 -10 -9 -4 24 -18 -6 -5 -12 -1 28 -24 -14 29 -27 -3 -2 -11
right_child=2 9 3 4 18 6 -8 8 13 25 20 -13 16 -15 -16 -17 17 -19 -20 -21 -22 -23 23 -25 -26 26 -28 -29 -30 -31
leaf_value=-3.5453912910530646e-05 -0.010989533113890254 -0.010142375145487348 -0.014305735923815311 -0.0096695690409191581 -0.0013474374351855256 0 0.016194521557113688 0 0.0010262687425712208 0.011112766628401972 0.011077601555498591 0.01093668745771173 -0.012324154666273974 0.015153288985863678 0 -0.0012880411459429168 0.0113845673033953 -0.011543054849372165 0 -0.010917624643211561 0.0096855742229250592 0.026858740015818963 -0.010755973000225794 -0.010745605017467004 -0.011833076545067905 0.013154760173015301 0.011112766628401972 -0.0099919130884438337 -0.0091553399665914355 0.011112766628401972
